{"learner":{"attributes":{"scikit_learn":"{\"_estimator_type\": \"classifier\"}"},"feature_names":["task_category_encoded","complexity","divyansh_workload","anushka_workload","love_workload","uthkarsh_workload"],"feature_types":["int","int","int","int","int","int"],"gradient_booster":{"model":{"cats":{"enc":[],"feature_segments":[],"sorted_idx":[]},"gbtree_model_param":{"num_parallel_tree":"1","num_trees":"400"},"iteration_indptr":[0,4,8,12,16,20,24,28,32,36,40,44,48,52,56,60,64,68,72,76,80,84,88,92,96,100,104,108,112,116,120,124,128,132,136,140,144,148,152,156,160,164,168,172,176,180,184,188,192,196,200,204,208,212,216,220,224,228,232,236,240,244,248,252,256,260,264,268,272,276,280,284,288,292,296,300,304,308,312,316,320,324,328,332,336,340,344,348,352,356,360,364,368,372,376,380,384,388,392,396,400],"tree_info":[0,1,2,3,0,1,2,3,0,1,2,3,0,1,2,3,0,1,2,3,0,1,2,3,0,1,2,3,0,1,2,3,0,1,2,3,0,1,2,3,0,1,2,3,0,1,2,3,0,1,2,3,0,1,2,3,0,1,2,3,0,1,2,3,0,1,2,3,0,1,2,3,0,1,2,3,0,1,2,3,0,1,2,3,0,1,2,3,0,1,2,3,0,1,2,3,0,1,2,3,0,1,2,3,0,1,2,3,0,1,2,3,0,1,2,3,0,1,2,3,0,1,2,3,0,1,2,3,0,1,2,3,0,1,2,3,0,1,2,3,0,1,2,3,0,1,2,3,0,1,2,3,0,1,2,3,0,1,2,3,0,1,2,3,0,1,2,3,0,1,2,3,0,1,2,3,0,1,2,3,0,1,2,3,0,1,2,3,0,1,2,3,0,1,2,3,0,1,2,3,0,1,2,3,0,1,2,3,0,1,2,3,0,1,2,3,0,1,2,3,0,1,2,3,0,1,2,3,0,1,2,3,0,1,2,3,0,1,2,3,0,1,2,3,0,1,2,3,0,1,2,3,0,1,2,3,0,1,2,3,0,1,2,3,0,1,2,3,0,1,2,3,0,1,2,3,0,1,2,3,0,1,2,3,0,1,2,3,0,1,2,3,0,1,2,3,0,1,2,3,0,1,2,3,0,1,2,3,0,1,2,3,0,1,2,3,0,1,2,3,0,1,2,3,0,1,2,3,0,1,2,3,0,1,2,3,0,1,2,3,0,1,2,3,0,1,2,3,0,1,2,3,0,1,2,3,0,1,2,3,0,1,2,3,0,1,2,3,0,1,2,3,0,1,2,3,0,1,2,3,0,1,2,3,0,1,2,3,0,1,2,3,0,1,2,3,0,1,2,3],"trees":[{"base_weights":[8.156588E-8,-2.4454378E-1,1.179168E0,3.4554723E-1,-5.2088517E-1,1.6702279E0,-1.1310033E-1,7.280991E-1,-3.6882445E-1,-2.8963652E-1,-1.891217E-1,5.902102E-1,5.42535E-1,-1.6089109E-1,3.7193054E-1,1.42768E-1,4.9435034E-1,-1.8490553E-1,2.8877896E-1,-1.8603198E-1,-6.3922465E-2,3.4971648E-1,-1.0861492E-1,2.7701783E-1,-1.2287334E-1,-1.783136E-1,7.062148E-1,-1.3337892E-1,2.7701783E-1,4.3698263E-1,-4.4075292E-1,-1.41441E-1,3.2702863E-1,-6.89724E-2,4.2072782E-1,-1.8038058E-1,3.9893635E-2],"categories":[],"categories_nodes":[],"categories_segments":[],"categories_sizes":[],"default_left":[0,0,0,0,0,0,0,0,0,0,0,0,0,0,0,0,0,0,0,0,0,0,0,0,0,0,0,0,0,0,0,0,0,0,0,0,0],"id":0,"left_children":[1,3,5,7,9,11,13,15,17,19,-1,21,-1,-1,23,25,-1,-1,27,-1,29,-1,-1,-1,-1,-1,31,-1,-1,33,35,-1,-1,-1,-1,-1,-1],"loss_changes":[4.4960815E1,2.1238144E1,1.7183998E1,1.1688758E1,2.0549927E0,1.8392258E0,1.9054797E0,1.459692E1,2.6582863E0,2.2163725E0,0E0,2.4462764E0,0E0,0E0,2.3017166E0,7.8673553E0,0E0,0E0,2.666845E0,0E0,3.7951283E0,0E0,0E0,0E0,0E0,0E0,5.315146E0,0E0,0E0,5.9213057E0,1.1288574E0,0E0,0E0,0E0,0E0,0E0,0E0],"parents":[2147483647,0,0,1,1,2,2,3,3,4,4,5,5,6,6,7,7,8,8,9,9,11,11,14,14,15,15,18,18,20,20,26,26,29,29,30,30],"right_children":[2,4,6,8,10,12,14,16,18,20,-1,22,-1,-1,24,26,-1,-1,28,-1,30,-1,-1,-1,-1,-1,32,-1,-1,34,36,-1,-1,-1,-1,-1,-1],"split_conditions":[5E0,3E0,7E0,3E0,5E0,1E0,5E0,2E0,7E0,4E0,-1.891217E-1,5E0,5.42535E-1,-1.6089109E-1,7E0,5E0,4.9435034E-1,-1.8490553E-1,4E0,-1.8603198E-1,3E0,3.4971648E-1,-1.0861492E-1,2.7701783E-1,-1.2287334E-1,-1.783136E-1,2E0,-1.3337892E-1,2.7701783E-1,2E0,9E0,-1.41441E-1,3.2702863E-1,-6.89724E-2,4.2072782E-1,-1.8038058E-1,3.9893635E-2],"split_indices":[0,3,3,0,3,2,2,0,2,2,0,3,0,0,2,5,0,0,0,0,0,0,0,0,0,0,2,0,0,0,2,0,0,0,0,0,0],"split_type":[0,0,0,0,0,0,0,0,0,0,0,0,0,0,0,0,0,0,0,0,0,0,0,0,0,0,0,0,0,0,0,0,0,0,0,0,0],"sum_hessian":[1.5391998E2,1.2813838E2,2.5781597E1,4.0788795E1,8.7349594E1,1.8470398E1,7.311199E0,2.6551197E1,1.4237598E1,2.9244797E1,5.8104794E1,2.6935997E0,1.5776798E1,3.8479996E0,3.4631996E0,1.6931198E1,9.619999E0,1.0389599E1,3.8479996E0,1.1159199E1,1.8085598E1,1.5391998E0,1.1543999E0,1.9239998E0,1.5391998E0,7.311199E0,9.619999E0,1.9239998E0,1.9239998E0,7.695999E0,1.0389599E1,2.3087997E0,7.311199E0,5.0023994E0,2.6935997E0,8.080799E0,2.3087997E0],"tree_param":{"num_deleted":"0","num_feature":"6","num_nodes":"37","size_leaf_vector":"1"}},{"base_weights":[2.031701E-7,4.9255052E-1,-3.1345692E-1,-7.6527044E-2,7.912615E-1,-5.396749E-1,1.389058E-1,-1.6810104E-1,5.6649697E-1,1.0054744E0,1.9584128E-1,-6.3454926E-1,-1.9671284E-1,8.467249E-1,-1.9366138E-1,1.0968088E0,-3.1794578E-1,5.7003087E-1,5.0178313E-1,-1.7471081E-1,9.441562E-1,-2.0106323E-1,-4.5770392E-1,7.2387256E-2,-1.7471081E-1,3.4619465E-1,4.4058457E-1,2.5006175E-2,3.918315E-1,-1.4516449E-1,2.5006175E-2,1.198159E-1,4.6101645E-1,4.185145E-1,1.0802268E-1,-1.8309581E-1,2.450079E-2,-1.7268308E-1,8.610492E-1,-3.9424428E-1,9.441562E-1,1.9165534E-1,-8.2309105E-2,-1.1201377E-1,1.6202612E-1,1.6202612E-1,-1.2645255E-1,3.6589208E-1,6.4125456E-2,-1.6105244E-1,2.5006175E-2,8.681177E-2,4.0465787E-1],"categories":[],"categories_nodes":[],"categories_segments":[],"categories_sizes":[],"default_left":[0,0,0,0,0,0,0,0,0,0,0,0,0,0,0,0,0,0,0,0,0,0,0,0,0,0,0,0,0,0,0,0,0,0,0,0,0,0,0,0,0,0,0,0,0,0,0,0,0,0,0,0,0],"id":1,"left_children":[1,3,5,7,9,11,13,-1,15,17,19,21,23,25,-1,27,29,31,-1,-1,33,-1,35,37,-1,39,-1,-1,-1,-1,-1,41,-1,-1,43,-1,45,-1,47,49,51,-1,-1,-1,-1,-1,-1,-1,-1,-1,-1,-1,-1],"loss_changes":[2.4794804E1,1.0677355E1,1.0117824E1,7.2893076E0,5.038271E0,2.010582E0,1.915392E1,0E0,5.0949435E0,7.7451687E0,7.597202E0,1.46102905E-2,1.6683954E0,5.109763E0,0E0,1.2806406E0,3.4454238E-1,8.361354E0,0E0,0E0,2.3190022E0,0E0,8.7635803E-1,5.667061E0,0E0,5.3791885E0,0E0,0E0,0E0,0E0,0E0,3.1379023E0,0E0,0E0,9.044622E-1,0E0,1.0958309E0,0E0,8.917227E-1,4.3688124E-1,1.3456006E0,0E0,0E0,0E0,0E0,0E0,0E0,0E0,0E0,0E0,0E0,0E0,0E0],"parents":[2147483647,0,0,1,1,2,2,3,3,4,4,5,5,6,6,8,8,9,9,10,10,11,11,12,12,13,13,15,15,16,16,17,17,20,20,22,22,23,23,25,25,31,31,34,34,36,36,38,38,39,39,40,40],"right_children":[2,4,6,8,10,12,14,-1,16,18,20,22,24,26,-1,28,30,32,-1,-1,34,-1,36,38,-1,40,-1,-1,-1,-1,-1,42,-1,-1,44,-1,46,-1,48,50,52,-1,-1,-1,-1,-1,-1,-1,-1,-1,-1,-1,-1],"split_conditions":[4E0,2E0,4E0,6E0,5E0,8E0,5E0,-1.6810104E-1,2E0,4E0,5E0,8E0,3E0,6E0,-1.9366138E-1,2E0,5E0,7E0,5.0178313E-1,-1.7471081E-1,2E0,-2.0106323E-1,6E0,2E0,-1.7471081E-1,4E0,4.4058457E-1,2.5006175E-2,3.918315E-1,-1.4516449E-1,2.5006175E-2,3E0,4.6101645E-1,4.185145E-1,6E0,-1.8309581E-1,9E0,-1.7268308E-1,7E0,7E0,5E0,1.9165534E-1,-8.2309105E-2,-1.1201377E-1,1.6202612E-1,1.6202612E-1,-1.2645255E-1,3.6589208E-1,6.4125456E-2,-1.6105244E-1,2.5006175E-2,8.681177E-2,4.0465787E-1],"split_indices":[2,0,0,5,0,3,0,0,2,0,3,5,0,5,0,3,3,4,0,0,2,0,3,0,0,4,0,0,0,0,0,0,0,0,1,0,5,0,2,1,1,0,0,0,0,0,0,0,0,0,0,0,0],"split_type":[0,0,0,0,0,0,0,0,0,0,0,0,0,0,0,0,0,0,0,0,0,0,0,0,0,0,0,0,0,0,0,0,0,0,0,0,0,0,0,0,0,0,0,0,0,0,0,0,0,0,0,0,0],"sum_hessian":[1.5859497E2,6.145555E1,9.713942E1,2.141032E1,4.0045227E1,6.462745E1,3.2511967E1,1.229111E1,9.11921E0,2.894358E1,1.1101647E1,4.9957413E1,1.4670034E1,1.704896E1,1.5463009E1,5.5508237E0,3.5683868E0,1.8634909E1,1.0308673E1,5.5508237E0,5.5508237E0,3.9252254E1,1.070516E1,9.11921E0,5.5508237E0,1.0308673E1,6.740286E0,1.1894622E0,4.3613615E0,2.3789244E0,1.1894622E0,1.3480572E1,5.1543365E0,3.1718993E0,2.3789244E0,7.9297485E0,2.7754118E0,5.1543365E0,3.9648743E0,4.7578487E0,5.5508237E0,5.5508237E0,7.9297485E0,1.1894622E0,1.1894622E0,1.1894622E0,1.5859497E0,1.9824371E0,1.9824371E0,3.5683868E0,1.1894622E0,2.7754118E0,2.7754118E0],"tree_param":{"num_deleted":"0","num_feature":"6","num_nodes":"53","size_leaf_vector":"1"}},{"base_weights":[1.2714384E-7,7.005104E-1,-1.8759318E-1,1.0899398E0,4.480968E-2,3.698905E-2,-1.911916E-1,-8.083051E-2,1.330968E0,-4.5666233E-1,5.96741E-1,-3.8125488E-1,1.2586582E0,-1.4218543E-1,1.6828108E-1,8.64141E-1,5.0607586E-1,-1.7171223E-1,2.949258E-2,9.721316E-1,-1.23589985E-1,-5.719279E-1,-1.4223616E-1,1.537695E0,-1.4857239E-1,4.7671837E-1,-3.038115E-1,2.949258E-2,3.587554E-1,-5.961945E-1,-3.1931855E-2,-5.4495907E-1,1.5369101E-1,6.927519E-1,5.1309526E-1,-1.4218543E-1,2.949258E-2,-1.8684523E-1,-5.190895E-2,-5.885215E-3,-1.8501157E-1,2.592423E-1,-1.81115E-1,3.9947346E-1,-1.23589985E-1],"categories":[],"categories_nodes":[],"categories_segments":[],"categories_sizes":[],"default_left":[0,0,0,0,0,0,0,0,0,0,0,0,0,0,0,0,0,0,0,0,0,0,0,0,0,0,0,0,0,0,0,0,0,0,0,0,0,0,0,0,0,0,0,0,0],"id":2,"left_children":[1,3,5,7,9,11,-1,13,15,17,19,21,23,-1,-1,25,-1,-1,-1,27,-1,29,31,33,-1,-1,35,-1,-1,37,-1,39,41,43,-1,-1,-1,-1,-1,-1,-1,-1,-1,-1,-1],"loss_changes":[2.0615103E1,8.412554E0,1.2520828E1,5.9620266E0,3.978568E0,4.3129814E1,0E0,1.3973085E0,1.4106331E0,5.431721E-1,2.9783273E0,2.7875605E0,1.1293938E1,0E0,0E0,8.541508E0,0E0,0E0,0E0,9.1053915E-1,0E0,3.2834053E-1,3.5714223E0,1.558815E0,0E0,0E0,3.534209E-1,0E0,0E0,2.611847E-1,0E0,4.6340013E-1,1.00186615E1,3.9867606E0,0E0,0E0,0E0,0E0,0E0,0E0,0E0,0E0,0E0,0E0,0E0],"parents":[2147483647,0,0,1,1,2,2,3,3,4,4,5,5,7,7,8,8,9,9,10,10,11,11,12,12,15,15,19,19,21,21,22,22,23,23,26,26,29,29,31,31,32,32,33,33],"right_children":[2,4,6,8,10,12,-1,14,16,18,20,22,24,-1,-1,26,-1,-1,-1,28,-1,30,32,34,-1,-1,36,-1,-1,38,-1,40,42,44,-1,-1,-1,-1,-1,-1,-1,-1,-1,-1,-1],"split_conditions":[2E0,4E0,4E0,1E0,5E0,3E0,-1.911916E-1,9E0,3E0,7E0,6E0,6E0,8E0,-1.4218543E-1,1.6828108E-1,2E0,5.0607586E-1,-1.7171223E-1,2.949258E-2,4E0,-1.23589985E-1,9E0,1E0,2E0,-1.4857239E-1,4.7671837E-1,6E0,2.949258E-2,3.587554E-1,9E0,-3.1931855E-2,4E0,2E0,6E0,5.1309526E-1,-1.4218543E-1,2.949258E-2,-1.8684523E-1,-5.190895E-2,-5.885215E-3,-1.8501157E-1,2.592423E-1,-1.81115E-1,3.9947346E-1,-1.23589985E-1],"split_indices":[4,0,0,0,2,0,0,2,0,3,5,5,4,0,0,0,0,0,0,3,0,1,0,2,0,0,1,0,0,2,0,1,0,4,0,0,0,0,0,0,0,0,0,0,0],"split_type":[0,0,0,0,0,0,0,0,0,0,0,0,0,0,0,0,0,0,0,0,0,0,0,0,0,0,0,0,0,0,0,0,0,0,0,0,0,0,0,0,0,0,0,0,0],"sum_hessian":[1.54875E2,3.2136562E1,1.22738434E2,1.9746561E1,1.2389999E1,8.247093E1,4.0267498E1,3.4846873E0,1.6261875E1,6.582187E0,5.807812E0,6.1949997E1,2.0520937E1,2.323125E0,1.1615624E0,8.518125E0,7.7437496E0,5.4206247E0,1.1615624E0,4.2590623E0,1.5487499E0,3.368531E1,2.8264687E1,1.7810623E1,2.7103124E0,5.0334373E0,3.4846873E0,1.1615624E0,3.0974998E0,3.1749374E1,1.9359374E0,1.1615624E1,1.6649061E1,3.8718748E0,1.3938749E1,2.323125E0,1.1615624E0,2.9426249E1,2.323125E0,1.5487499E0,1.00668745E1,8.518125E0,8.130938E0,2.323125E0,1.5487499E0],"tree_param":{"num_deleted":"0","num_feature":"6","num_nodes":"45","size_leaf_vector":"1"}},{"base_weights":[-5.2967255E-7,9.4209665E-1,-4.5397863E-1,1.6966382E0,3.4051135E-2,3.8304035E-2,-5.781093E-1,3.8286567E-1,1.9931563E0,4.499691E-1,-3.85026E-1,-2.3705214E-1,7.4236435E-1,-3.4395593E-1,-1.855173E-1,4.534649E-1,-1.4071265E-1,6.582129E-1,1.1758703E0,-1.4071265E-1,8.5341436E-1,-1.6647351E-1,5.1650714E-2,-1.655877E-1,1.5361997E-1,-1.2484358E-1,4.457254E-1,-1.6942759E-1,2.9362735E-1,1.430681E-1,4.457254E-1,-3.9766677E-2,1.2816124E0,5.1716346E-1,-1.3118407E-1,-1.1693133E-1,2.8387862E-1,4.6942297E-1,1.1122716E-1,-2.8520804E-3,2.3448549E-1],"categories":[],"categories_nodes":[],"categories_segments":[],"categories_sizes":[],"default_left":[0,0,0,0,0,0,0,0,0,0,0,0,0,0,0,0,0,0,0,0,0,0,0,0,0,0,0,0,0,0,0,0,0,0,0,0,0,0,0,0,0],"id":3,"left_children":[1,3,5,7,9,11,13,15,17,19,21,23,25,27,-1,-1,-1,-1,29,-1,31,-1,-1,-1,33,-1,-1,-1,35,-1,-1,-1,37,39,-1,-1,-1,-1,-1,-1,-1],"loss_changes":[5.6617836E1,2.9436623E1,5.481022E0,8.38781E0,3.7563722E0,3.8453574E0,4.6080017E-1,6.0582895E0,5.2760315E-1,4.3966417E0,1.1158262E0,1.8519224E0,5.409521E0,1.9585516E0,0E0,0E0,0E0,0E0,5.670643E-1,0E0,3.4819489E0,0E0,0E0,0E0,1.7713423E0,0E0,0E0,0E0,2.1232271E0,0E0,0E0,0E0,8.5458755E-1,6.914935E-1,0E0,0E0,0E0,0E0,0E0,0E0,0E0],"parents":[2147483647,0,0,1,1,2,2,3,3,4,4,5,5,6,6,7,7,8,8,9,9,10,10,11,11,12,12,13,13,18,18,20,20,24,24,28,28,32,32,33,33],"right_children":[2,4,6,8,10,12,14,16,18,20,22,24,26,28,-1,-1,-1,-1,30,-1,32,-1,-1,-1,34,-1,-1,-1,36,-1,-1,-1,38,40,-1,-1,-1,-1,-1,-1,-1],"split_conditions":[2E0,6E0,2E0,2E0,8E0,7E0,3E0,1E0,5E0,3E0,7E0,6E0,5E0,7E0,-1.855173E-1,4.534649E-1,-1.4071265E-1,6.582129E-1,4E0,-1.4071265E-1,4E0,-1.6647351E-1,5.1650714E-2,-1.655877E-1,5E0,-1.2484358E-1,4.457254E-1,-1.6942759E-1,6E0,1.430681E-1,4.457254E-1,-3.9766677E-2,1E0,4E0,-1.3118407E-1,-1.1693133E-1,2.8387862E-1,4.6942297E-1,1.1122716E-1,-2.8520804E-3,2.3448549E-1],"split_indices":[0,5,5,4,5,3,5,0,5,3,3,2,4,4,0,0,0,0,3,0,2,0,0,0,0,0,0,0,1,0,0,0,0,0,0,0,0,0,0,0,0],"split_type":[0,0,0,0,0,0,0,0,0,0,0,0,0,0,0,0,0,0,0,0,0,0,0,0,0,0,0,0,0,0,0,0,0,0,0,0,0,0,0,0,0],"sum_hessian":[1.3038008E2,4.2047577E1,8.8332504E1,2.2490564E1,1.9557013E1,1.7927261E1,7.040524E1,4.563303E0,1.7927261E1,9.778506E0,9.778506E0,1.3363958E1,4.563303E0,1.1734207E1,5.8671036E1,1.629751E0,2.9335518E0,1.3038008E1,4.889253E0,2.9335518E0,6.8449545E0,7.496855E0,2.2816515E0,7.1709046E0,6.1930537E0,1.9557012E0,2.6076016E0,8.800655E0,2.9335518E0,2.2816515E0,2.6076016E0,2.2816515E0,4.563303E0,3.9114025E0,2.2816515E0,1.629751E0,1.3038008E0,2.9335518E0,1.629751E0,1.629751E0,2.2816515E0],"tree_param":{"num_deleted":"0","num_feature":"6","num_nodes":"41","size_leaf_vector":"1"}},{"base_weights":[-2.3207262E-3,-2.092073E-1,7.9702514E-1,2.7253544E-1,-4.7044092E-1,1.0786394E0,-1.1726653E-1,5.4111993E-1,-3.2355356E-1,-2.4625485E-1,-5.832348E-1,4.665286E-1,3.4251985E-1,-1.5061305E-1,2.7278668E-1,1.155769E-1,1.0901102E0,-1.7128846E-1,2.4131307E-1,-1.7217435E-1,-4.2681977E-2,-1.8550792E-1,-4.1262734E-1,2.6137936E-1,-9.895039E-2,2.0664118E-1,-1.1741912E-1,-1.629571E-1,5.1167476E-1,1.0971968E-1,3.4389234E-1,-1.1946807E-1,2.0745437E-1,3.480685E-1,-3.844493E-1,3.8332164E-2,-4.8067638E-1,-1.3239999E-1,2.3027717E-1,-5.8478955E-2,2.9574293E-1,-1.6795528E-1,5.7758562E-2,-1.6816981E-1,-2.712408E-2],"categories":[],"categories_nodes":[],"categories_segments":[],"categories_sizes":[],"default_left":[0,0,0,0,0,0,0,0,0,0,0,0,0,0,0,0,0,0,0,0,0,0,0,0,0,0,0,0,0,0,0,0,0,0,0,0,0,0,0,0,0,0,0,0,0],"id":4,"left_children":[1,3,5,7,9,11,13,15,17,19,21,23,-1,-1,25,27,29,-1,31,-1,33,-1,35,-1,-1,-1,-1,-1,37,-1,-1,-1,-1,39,41,-1,43,-1,-1,-1,-1,-1,-1,-1,-1],"loss_changes":[2.4986452E1,1.5232006E1,8.125191E0,7.0324283E0,1.8334332E0,3.8837242E-1,1.370237E0,6.8595533E0,2.0845518E0,1.8365667E0,5.2171707E-2,1.5506647E0,0E0,0E0,1.5761724E0,4.965181E0,1.0745239E-1,0E0,1.6993977E0,0E0,2.5762835E0,0E0,4.9393153E-1,0E0,0E0,0E0,0E0,0E0,3.2003236E0,0E0,0E0,0E0,0E0,3.3288875E0,1.14323E0,0E0,2.815516E-1,0E0,0E0,0E0,0E0,0E0,0E0,0E0,0E0],"parents":[2147483647,0,0,1,1,2,2,3,3,4,4,5,5,6,6,7,7,8,8,9,9,10,10,11,11,14,14,15,15,16,16,18,18,20,20,22,22,28,28,33,33,34,34,36,36],"right_children":[2,4,6,8,10,12,14,16,18,20,22,24,-1,-1,26,28,30,-1,32,-1,34,-1,36,-1,-1,-1,-1,-1,38,-1,-1,-1,-1,40,42,-1,44,-1,-1,-1,-1,-1,-1,-1,-1],"split_conditions":[5E0,3E0,7E0,3E0,5E0,1E0,5E0,2E0,7E0,4E0,8E0,5E0,3.4251985E-1,-1.5061305E-1,7E0,5E0,2E0,-1.7128846E-1,4E0,-1.7217435E-1,3E0,-1.8550792E-1,1E0,2.6137936E-1,-9.895039E-2,2.0664118E-1,-1.1741912E-1,-1.629571E-1,2E0,1.0971968E-1,3.4389234E-1,-1.1946807E-1,2.0745437E-1,2E0,7E0,3.8332164E-2,8E0,-1.3239999E-1,2.3027717E-1,-5.8478955E-2,2.9574293E-1,-1.6795528E-1,5.7758562E-2,-1.6816981E-1,-2.712408E-2],"split_indices":[0,3,3,0,3,2,2,0,2,2,2,3,0,0,2,5,1,0,0,0,0,0,5,0,0,0,0,0,2,0,0,0,0,0,4,0,5,0,0,0,0,0,0,0,0],"split_type":[0,0,0,0,0,0,0,0,0,0,0,0,0,0,0,0,0,0,0,0,0,0,0,0,0,0,0,0,0,0,0,0,0,0,0,0,0,0,0,0,0,0,0,0,0],"sum_hessian":[1.4908235E2,1.1901674E2,3.0065617E1,4.1831577E1,7.7185165E1,2.284828E1,7.2173357E0,2.8901443E1,1.2930134E1,2.69009E1,5.0284264E1,2.9194095E0,1.9928871E1,3.488706E0,3.7286296E0,1.6963175E1,1.1938269E1,8.984284E0,3.9458494E0,9.611521E0,1.728938E1,3.9522793E1,1.0761473E1,1.8732919E0,1.0461175E0,2.2698321E0,1.4587975E0,6.230167E0,1.0733008E1,1.4000314E0,1.0538238E1,1.6778309E0,2.2680187E0,8.058021E0,9.231359E0,1.1054035E0,9.656069E0,2.1186848E0,8.614325E0,4.727328E0,3.3306928E0,7.1020226E0,2.1293354E0,7.6530533E0,2.0030155E0],"tree_param":{"num_deleted":"0","num_feature":"6","num_nodes":"45","size_leaf_vector":"1"}},{"base_weights":[3.5166098E-3,3.872486E-1,-2.7263483E-1,-5.3637613E-2,5.915873E-1,-4.8776278E-1,1.1199992E-1,-5.039719E-1,4.4390032E-1,2.0604049E-1,7.527642E-1,-5.837668E-1,-1.6940261E-1,6.0869414E-1,-1.781499E-1,-2.4276747E-1,-1.70935E-1,8.1707215E-1,-2.874348E-1,-2.3758535E-1,6.433553E-1,3.4810817E-1,5.725616E-1,-1.8619484E-1,-4.1446897E-1,5.46068E-2,-1.5900898E-1,2.6717094E-1,9.7705555E-1,-1.2891947E-1,4.563872E-2,1.8875876E-2,2.871703E-1,-1.3549131E-1,2.5014816E-2,-1.5703349E-1,9.75005E-2,8.517171E-1,-9.943993E-2,-1.4172652E-1,8.1050843E-1,-1.6768044E-1,1.3523417E-3,-1.5959585E-1,6.395747E-1,-3.598276E-1,6.982546E-1,3.1740376E-1,9.601296E-2,2.0968907E-1,-1.2774077E-1,1.0131522E-2,3.132759E-1,-1.570182E-1,1.8089117E-1,3.1748623E-1,1.345604E-1,1.2271323E-1,-1.1714705E-1,3.9271235E-2,2.781413E-1,3.0176766E-2,-1.5198171E-1,2.5381655E-1,2.8506054E-3],"categories":[],"categories_nodes":[],"categories_segments":[],"categories_sizes":[],"default_left":[0,0,0,0,0,0,0,0,0,0,0,0,0,0,0,0,0,0,0,0,0,0,0,0,0,0,0,0,0,0,0,0,0,0,0,0,0,0,0,0,0,0,0,0,0,0,0,0,0,0,0,0,0,0,0,0,0,0,0,0,0,0,0,0,0],"id":5,"left_children":[1,3,5,7,9,11,13,15,17,19,21,23,25,27,-1,29,-1,31,33,35,37,-1,39,-1,41,43,-1,45,47,-1,-1,-1,-1,-1,-1,-1,49,51,-1,53,55,-1,57,-1,59,61,63,-1,-1,-1,-1,-1,-1,-1,-1,-1,-1,-1,-1,-1,-1,-1,-1,-1,-1],"loss_changes":[1.6438236E1,5.8797913E0,7.5194955E0,5.0352674E0,2.606389E0,1.675107E0,1.199107E1,6.349349E-2,3.1643791E0,2.9615796E0,1.6097202E0,1.866436E-2,1.2291225E0,2.2505713E0,0E0,3.6845952E-1,0E0,7.1857214E-1,3.0352995E-1,8.0941284E-1,1.8179486E0,0E0,4.0993824E0,0E0,6.564052E-1,3.7959125E0,0E0,3.4233608E0,1.5225029E-1,0E0,0E0,0E0,0E0,0E0,0E0,0E0,1.7101425E0,9.8981667E-1,0E0,2.2225454E0,1.1158924E0,0E0,7.686636E-1,0E0,6.826265E-1,4.1868412E-1,7.3453665E-1,0E0,0E0,0E0,0E0,0E0,0E0,0E0,0E0,0E0,0E0,0E0,0E0,0E0,0E0,0E0,0E0,0E0,0E0],"parents":[2147483647,0,0,1,1,2,2,3,3,4,4,5,5,6,6,7,7,8,8,9,9,10,10,11,11,12,12,13,13,15,15,17,17,18,18,19,19,20,20,22,22,24,24,25,25,27,27,28,28,36,36,37,37,39,39,40,40,42,42,44,44,45,45,46,46],"right_children":[2,4,6,8,10,12,14,16,18,20,22,24,26,28,-1,30,-1,32,34,36,38,-1,40,-1,42,44,-1,46,48,-1,-1,-1,-1,-1,-1,-1,50,52,-1,54,56,-1,58,-1,60,62,64,-1,-1,-1,-1,-1,-1,-1,-1,-1,-1,-1,-1,-1,-1,-1,-1,-1,-1],"split_conditions":[4E0,2E0,4E0,6E0,3E0,8E0,5E0,3E0,2E0,5E0,3E0,6E0,3E0,6E0,-1.781499E-1,7E0,-1.70935E-1,2E0,5E0,4E0,5E0,3.4810817E-1,4E0,-1.8619484E-1,8E0,2E0,-1.5900898E-1,4E0,9E0,-1.2891947E-1,4.563872E-2,1.8875876E-2,2.871703E-1,-1.3549131E-1,2.5014816E-2,-1.5703349E-1,5E0,3E0,-9.943993E-2,6E0,5E0,-1.6768044E-1,9E0,-1.5959585E-1,5E0,7E0,9E0,3.1740376E-1,9.601296E-2,2.0968907E-1,-1.2774077E-1,1.0131522E-2,3.132759E-1,-1.570182E-1,1.8089117E-1,3.1748623E-1,1.345604E-1,1.2271323E-1,-1.1714705E-1,3.9271235E-2,2.781413E-1,3.0176766E-2,-1.5198171E-1,2.5381655E-1,2.8506054E-3],"split_indices":[2,0,0,5,3,3,0,3,2,4,0,3,0,5,0,4,0,3,3,0,0,0,0,0,5,0,0,4,2,0,0,0,0,0,0,0,0,0,0,4,0,0,5,0,5,2,2,0,0,0,0,0,0,0,0,0,0,0,0,0,0,0,0,0,0],"split_type":[0,0,0,0,0,0,0,0,0,0,0,0,0,0,0,0,0,0,0,0,0,0,0,0,0,0,0,0,0,0,0,0,0,0,0,0,0,0,0,0,0,0,0,0,0,0,0,0,0,0,0,0,0,0,0,0,0,0,0,0,0,0,0,0,0],"sum_hessian":[1.53128E2,6.3913445E1,8.921456E1,2.0474554E1,4.3438892E1,5.704238E1,3.217218E1,1.0740301E1,9.734252E0,1.3477671E1,2.996122E1,4.3185722E1,1.3856662E1,1.8964497E1,1.3207684E1,3.1050909E0,7.6352105E0,6.3677855E0,3.3664668E0,6.9172816E0,6.560389E0,7.5177603E0,2.244346E1,3.3271317E1,9.914403E0,9.07078E0,4.7858815E0,1.0736E1,8.2284975E0,2.0474916E0,1.0575993E0,1.2250763E0,5.1427093E0,2.1822057E0,1.1842608E0,3.4294863E0,3.487795E0,5.509132E0,1.0512571E0,5.7092733E0,1.6734186E1,7.1026196E0,2.8117828E0,4.574322E0,4.4964576E0,4.4414034E0,6.2945967E0,6.7824287E0,1.4460686E0,1.466539E0,2.021256E0,1.2736634E0,4.2354684E0,3.9711673E0,1.7381059E0,8.792125E0,7.9420614E0,1.3565078E0,1.4552752E0,2.1494715E0,2.346986E0,1.1496959E0,3.2917078E0,4.994443E0,1.3001534E0],"tree_param":{"num_deleted":"0","num_feature":"6","num_nodes":"65","size_leaf_vector":"1"}},{"base_weights":[-7.79885E-5,1.9126782E-1,-5.0036377E-1,4.291659E-1,-3.443591E-1,-1.8229055E-1,-4.0553916E-1,-5.061226E-4,1.1080871E0,3.3960322E-1,-5.429183E-1,3.957213E-2,-4.882027E-1,2.4012963E-1,-5.364919E-1,3.5327658E-1,5.9508413E-1,-2.819185E-1,8.426885E-1,-1.8216084E-1,-2.3376817E-1,-2.3143466E-1,1.3602713E-1,-2.044008E-2,-5.229156E-1,-4.3861154E-1,8.894008E-1,-1.7890117E-1,3.0773794E-2,-1.10295184E-1,2.806854E-1,-1.3427737E-1,3.3604745E-2,3.0764037E-1,9.020111E-2,-1.5162733E-1,1.1054558E-1,2.489185E-3,-1.09531395E-1,-3.5431832E-1,-1.7806491E-1,-1.5945193E-1,1.3769153E-2,1.06457345E-1,3.635734E-1,-1.6185677E-1,-3.8036606E-3],"categories":[],"categories_nodes":[],"categories_segments":[],"categories_sizes":[],"default_left":[0,0,0,0,0,0,0,0,0,0,0,0,0,0,0,0,0,0,0,0,0,0,0,0,0,0,0,0,0,0,0,0,0,0,0,0,0,0,0,0,0,0,0,0,0,0,0],"id":6,"left_children":[1,3,5,7,9,-1,11,13,15,17,19,21,23,25,27,-1,29,31,33,-1,35,37,-1,-1,39,41,43,-1,-1,-1,-1,-1,-1,-1,-1,-1,-1,-1,-1,45,-1,-1,-1,-1,-1,-1,-1],"loss_changes":[1.4558183E1,1.4165201E1,1.815548E-1,2.2351194E1,4.854386E0,0E0,9.516654E-1,6.309677E0,3.580475E-1,2.8490503E0,3.9533854E-1,6.53813E-1,2.7708626E-1,1.5269539E1,6.408882E-1,0E0,2.1683745E0,3.4288076E-1,1.737907E-1,0E0,1.2136743E0,1.190113E-1,0E0,0E0,2.3804665E-2,7.9751205E-1,2.6018686E0,0E0,0E0,0E0,0E0,0E0,0E0,0E0,0E0,0E0,0E0,0E0,0E0,5.174022E-1,0E0,0E0,0E0,0E0,0E0,0E0,0E0],"parents":[2147483647,0,0,1,1,2,2,3,3,4,4,6,6,7,7,8,8,9,9,10,10,11,11,12,12,13,13,14,14,16,16,17,17,18,18,20,20,21,21,24,24,25,25,26,26,39,39],"right_children":[2,4,6,8,10,-1,12,14,16,18,20,22,24,26,28,-1,30,32,34,-1,36,38,-1,-1,40,42,44,-1,-1,-1,-1,-1,-1,-1,-1,-1,-1,-1,-1,46,-1,-1,-1,-1,-1,-1,-1],"split_conditions":[7E0,4E0,4E0,3E0,1E0,-1.8229055E-1,5E0,2E0,6E0,5E0,8E0,8E0,2E0,1E0,9E0,3.5327658E-1,2E0,5E0,5E0,-1.8216084E-1,6E0,4E0,1.3602713E-1,-2.044008E-2,8E0,9E0,5E0,-1.7890117E-1,3.0773794E-2,-1.10295184E-1,2.806854E-1,-1.3427737E-1,3.3604745E-2,3.0764037E-1,9.020111E-2,-1.5162733E-1,1.1054558E-1,2.489185E-3,-1.09531395E-1,3E0,-1.7806491E-1,-1.5945193E-1,1.3769153E-2,1.06457345E-1,3.635734E-1,-1.6185677E-1,-3.8036606E-3],"split_indices":[4,0,2,0,4,0,2,0,4,2,3,1,1,0,3,0,2,3,0,0,2,1,0,0,4,2,5,0,0,0,0,0,0,0,0,0,0,0,0,0,0,0,0,0,0,0,0],"split_type":[0,0,0,0,0,0,0,0,0,0,0,0,0,0,0,0,0,0,0,0,0,0,0,0,0,0,0,0,0,0,0,0,0,0,0,0,0,0,0,0,0,0,0,0,0,0,0],"sum_hessian":[1.5007954E2,1.0900555E2,4.1073997E1,7.5618454E1,3.3387093E1,1.6734694E1,2.4339306E1,4.692198E1,2.8696476E1,7.3519692E0,2.6035122E1,3.8938274E0,2.0445478E1,3.2764183E1,1.4157797E1,2.4131647E1,4.5648293E0,3.4855149E0,3.8664544E0,2.0755198E1,5.279924E0,2.61935E0,1.2744776E0,1.7867223E0,1.8658756E1,1.6177183E1,1.6587E1,1.3006667E1,1.15113E0,1.171947E0,3.3928823E0,2.3577385E0,1.1277766E0,2.2243989E0,1.6420555E0,3.7494507E0,1.5304732E0,1.2734299E0,1.3459201E0,7.285398E0,1.1373358E1,1.3493141E1,2.684042E0,7.032058E0,9.554941E0,4.3487215E0,2.9366765E0],"tree_param":{"num_deleted":"0","num_feature":"6","num_nodes":"47","size_leaf_vector":"1"}},{"base_weights":[-1.4261794E-3,6.454432E-1,-4.1169643E-1,1.0409657E0,2.4233814E-2,3.9785728E-2,-5.426351E-1,3.873129E-1,3.5677236E-1,-1.5744486E-1,2.598889E-1,-2.8998715E-1,4.5366755E-1,-2.9886517E-1,-1.7618182E-1,3.392248E-1,-1.419829E-1,-3.4066552E-1,5.9313715E-1,-1.5141533E-1,-1.7779348E-2,-2.1244656E-1,8.184523E-1,-1.5878315E-1,2.6506343E-1,3.189053E-2,-1.4368871E-1,-1.14855625E-1,8.4263736E-1,2.1577904E-1,-1.1304352E-1,1.0544733E-2,-1.0921592E-1,2.9944096E-2,9.9058557E-1,-1.1103705E-1,2.3876505E-1,3.5655972E-1,2.5116963E-2,-2.1670446E-2,1.399737E-1,4.938913E-2,3.5572115E-1],"categories":[],"categories_nodes":[],"categories_segments":[],"categories_sizes":[],"default_left":[0,0,0,0,0,0,0,0,0,0,0,0,0,0,0,0,0,0,0,0,0,0,0,0,0,0,0,0,0,0,0,0,0,0,0,0,0,0,0,0,0,0,0],"id":7,"left_children":[1,3,5,7,9,11,13,15,-1,-1,17,19,21,23,-1,-1,-1,25,27,-1,29,31,33,-1,35,-1,-1,-1,37,39,-1,-1,-1,-1,41,-1,-1,-1,-1,-1,-1,-1,-1],"loss_changes":[3.4119556E1,1.2234226E1,4.672065E0,2.4917564E0,2.7802608E0,2.6725774E0,4.8878098E-1,5.0874777E0,0E0,0E0,3.197299E0,6.323273E-1,2.2746985E0,1.6326047E0,0E0,0E0,0E0,4.2032814E-1,2.7552621E0,0E0,5.7393533E-1,1.5743557E-1,6.1767197E-1,0E0,1.6424886E0,0E0,0E0,0E0,2.071013E0,3.3673882E-1,0E0,0E0,0E0,0E0,5.3998375E-1,0E0,0E0,0E0,0E0,0E0,0E0,0E0,0E0],"parents":[2147483647,0,0,1,1,2,2,3,3,4,4,5,5,6,6,7,7,10,10,11,11,12,12,13,13,17,17,18,18,20,20,21,21,22,22,24,24,28,28,29,29,34,34],"right_children":[2,4,6,8,10,12,14,16,-1,-1,18,20,22,24,-1,-1,-1,26,28,-1,30,32,34,-1,36,-1,-1,-1,38,40,-1,-1,-1,-1,42,-1,-1,-1,-1,-1,-1,-1,-1],"split_conditions":[2E0,6E0,2E0,3E0,4E0,5E0,3E0,1E0,3.5677236E-1,-1.5744486E-1,4E0,6E0,4E0,7E0,-1.7618182E-1,3.392248E-1,-1.419829E-1,5E0,3E0,-1.5141533E-1,5E0,3E0,4E0,-1.5878315E-1,6E0,3.189053E-2,-1.4368871E-1,-1.14855625E-1,1E0,6E0,-1.1304352E-1,1.0544733E-2,-1.0921592E-1,2.9944096E-2,7E0,-1.1103705E-1,2.3876505E-1,3.5655972E-1,2.5116963E-2,-2.1670446E-2,1.399737E-1,4.938913E-2,3.5572115E-1],"split_indices":[0,5,5,4,4,3,5,0,0,0,2,2,2,4,0,0,0,4,3,0,0,1,4,0,3,0,0,0,0,4,0,0,0,0,3,0,0,0,0,0,0,0,0],"split_type":[0,0,0,0,0,0,0,0,0,0,0,0,0,0,0,0,0,0,0,0,0,0,0,0,0,0,0,0,0,0,0,0,0,0,0,0,0,0,0,0,0,0,0],"sum_hessian":[1.2656195E2,4.8895557E1,7.766639E1,2.9461674E1,1.9433882E1,1.7617304E1,6.0049088E1,6.115299E0,2.3346375E1,5.4677E0,1.3966182E1,9.971532E0,7.6457715E0,1.048499E1,4.95641E1,3.112544E0,3.0027552E0,4.9761996E0,8.989983E0,5.0967813E0,4.8747506E0,2.8532374E0,4.7925344E0,7.4872627E0,2.9977267E0,1.2305343E0,3.7456656E0,1.7214758E0,7.2685065E0,3.195201E0,1.6795496E0,1.3753101E0,1.4779273E0,1.2314054E0,3.5611289E0,1.502521E0,1.4952056E0,4.604012E0,2.6644943E0,1.8186642E0,1.3765368E0,1.0329397E0,2.528189E0],"tree_param":{"num_deleted":"0","num_feature":"6","num_nodes":"43","size_leaf_vector":"1"}},{"base_weights":[-3.0553988E-3,-1.844674E-1,6.2448186E-1,2.2819814E-1,-4.3124384E-1,8.440599E-1,-1.23255305E-1,4.3702808E-1,-2.869009E-1,-2.129969E-1,-5.468153E-1,3.8668185E-1,2.6685652E-1,-1.4325929E-1,2.1457866E-1,1.03744365E-1,8.336374E-1,-1.6013537E-1,2.0941268E-1,-1.6095224E-1,-2.8315373E-2,-1.754359E-1,-3.7380922E-1,1.9270569E-1,-8.060974E-3,1.6666003E-1,-1.1103108E-1,-1.5166116E-1,4.1501683E-1,8.300457E-2,2.6363188E-1,-1.06844075E-1,1.6476244E-1,2.9357928E-1,-3.3798298E-1,2.6184592E-2,-4.4043252E-1,-1.204909E-1,1.809104E-1,-4.7521427E-2,2.3210563E-1,-1.5647182E-1,5.4715876E-2,-1.5755446E-1,-2.1096721E-2],"categories":[],"categories_nodes":[],"categories_segments":[],"categories_sizes":[],"default_left":[0,0,0,0,0,0,0,0,0,0,0,0,0,0,0,0,0,0,0,0,0,0,0,0,0,0,0,0,0,0,0,0,0,0,0,0,0,0,0,0,0,0,0,0,0],"id":8,"left_children":[1,3,5,7,9,11,13,15,17,19,21,23,-1,-1,25,27,29,-1,31,-1,33,-1,35,-1,-1,-1,-1,-1,37,-1,-1,-1,-1,39,41,-1,43,-1,-1,-1,-1,-1,-1,-1,-1],"loss_changes":[1.5891159E1,1.1124408E1,5.2438536E0,4.5541244E0,1.6012363E0,1.618557E-1,1.0574062E0,3.8381958E0,1.6410168E0,1.4913247E0,6.969452E-2,4.368419E-1,0E0,0E0,1.1573169E0,3.4861925E0,9.410381E-2,0E0,1.1303518E0,0E0,1.8045036E0,0E0,3.6622238E-1,0E0,0E0,0E0,0E0,0E0,2.0821881E0,0E0,0E0,0E0,0E0,2.058912E0,9.7253346E-1,0E0,2.60687E-1,0E0,0E0,0E0,0E0,0E0,0E0,0E0,0E0],"parents":[2147483647,0,0,1,1,2,2,3,3,4,4,5,5,6,6,7,7,8,8,9,9,10,10,11,11,14,14,15,15,16,16,18,18,20,20,22,22,28,28,33,33,34,34,36,36],"right_children":[2,4,6,8,10,12,14,16,18,20,22,24,-1,-1,26,28,30,-1,32,-1,34,-1,36,-1,-1,-1,-1,-1,38,-1,-1,-1,-1,40,42,-1,44,-1,-1,-1,-1,-1,-1,-1,-1],"split_conditions":[5E0,3E0,7E0,3E0,5E0,1E0,5E0,2E0,7E0,4E0,8E0,4E0,2.6685652E-1,-1.4325929E-1,7E0,5E0,2E0,-1.6013537E-1,4E0,-1.6095224E-1,3E0,-1.754359E-1,1E0,1.9270569E-1,-8.060974E-3,1.6666003E-1,-1.1103108E-1,-1.5166116E-1,2E0,8.300457E-2,2.6363188E-1,-1.06844075E-1,1.6476244E-1,2E0,9E0,2.6184592E-2,8E0,-1.204909E-1,1.809104E-1,-4.7521427E-2,2.3210563E-1,-1.5647182E-1,5.4715876E-2,-1.5755446E-1,-2.1096721E-2],"split_indices":[0,3,3,0,3,2,2,0,2,2,2,3,0,0,2,5,2,0,0,0,0,0,5,0,0,0,0,0,2,0,0,0,0,0,2,0,5,0,0,0,0,0,0,0,0],"split_type":[0,0,0,0,0,0,0,0,0,0,0,0,0,0,0,0,0,0,0,0,0,0,0,0,0,0,0,0,0,0,0,0,0,0,0,0,0,0,0,0,0,0,0,0,0],"sum_hessian":[1.3757674E2,1.0727199E2,3.0304745E1,4.01715E1,6.710049E1,2.332607E1,6.978675E0,2.8691175E1,1.1480327E1,2.4215172E1,4.288531E1,2.9683187E0,2.0357752E1,3.204603E0,3.7740722E0,1.627573E1,1.2415446E1,7.616243E0,3.8640833E0,8.1077E0,1.6107471E1,3.321517E1,9.670138E0,1.4924088E0,1.4759101E0,2.4153981E0,1.358674E0,5.2923803E0,1.098335E1,1.4652181E0,1.0950228E1,1.4321965E0,2.4318867E0,7.9232893E0,8.184181E0,1.1816958E0,8.488442E0,1.8428391E0,9.140511E0,4.4263115E0,3.496978E0,6.0480695E0,2.136112E0,6.565961E0,1.9224817E0],"tree_param":{"num_deleted":"0","num_feature":"6","num_nodes":"45","size_leaf_vector":"1"}},{"base_weights":[3.9102007E-3,3.2139724E-1,-2.443548E-1,-4.1728545E-2,4.7937253E-1,-4.505507E-1,9.599434E-2,-4.5570394E-1,3.5408938E-1,5.874133E-1,1.3700442E-1,-5.4732484E-1,-1.5216672E-1,4.784866E-1,-1.6648811E-1,-1.8453759E-1,-1.5890814E-1,6.4089E-1,-2.60134E-1,3.7355354E-1,2.5717372E-1,-1.5299362E-1,5.8827543E-1,-1.7557064E-1,-3.793517E-1,4.082611E-2,-1.4674525E-1,1.3325076E-1,7.073645E-1,-1.139616E-1,4.9860667E-2,2.1184364E-1,2.485286E-1,-1.2671484E-1,2.4803506E-2,2.67402E-2,7.2890955E-1,2.5413045E-1,4.7300816E-2,-1.5557101E-1,-2.1302806E-2,-1.4775784E-1,4.9705356E-1,5.4623276E-1,-1.5112612E-1,2.6792595E-1,2.3824634E-1,2.0485325E-1,-1.2014125E-1,1.5365821E-1,-1.5313902E-1,2.7221507E-1,1.6019452E-2,-1.04579516E-1,1.1353407E-1,9.3446724E-2,-1.08797885E-1,2.6568195E-2,2.192087E-1,-5.8963117E-3,2.1264197E-1,1.9401921E-1,-9.711856E-2],"categories":[],"categories_nodes":[],"categories_segments":[],"categories_sizes":[],"default_left":[0,0,0,0,0,0,0,0,0,0,0,0,0,0,0,0,0,0,0,0,0,0,0,0,0,0,0,0,0,0,0,0,0,0,0,0,0,0,0,0,0,0,0,0,0,0,0,0,0,0,0,0,0,0,0,0,0,0,0,0,0,0,0],"id":9,"left_children":[1,3,5,7,9,11,13,15,17,19,21,23,25,27,-1,29,-1,31,33,35,-1,-1,37,-1,39,41,-1,43,45,-1,-1,47,-1,-1,-1,49,51,-1,53,-1,55,-1,57,59,-1,61,-1,-1,-1,-1,-1,-1,-1,-1,-1,-1,-1,-1,-1,-1,-1,-1,-1],"loss_changes":[1.1337461E1,3.640543E0,5.7086043E0,3.44729E0,1.5493174E0,1.373416E0,8.053948E0,1.0768509E-1,2.0717554E0,1.5949068E0,3.7665508E0,1.8109322E-2,9.1352874E-1,1.5050635E0,0E0,3.186546E-1,0E0,4.4090748E-1,2.6594484E-1,2.4806418E0,0E0,0E0,1.0043068E0,0E0,4.76748E-1,2.5951877E0,0E0,2.7220287E0,2.4256897E-1,0E0,0E0,1.3329397E0,0E0,0E0,0E0,3.20957E0,1.1549516E0,0E0,5.872276E-1,0E0,5.4266554E-1,0E0,4.796592E-1,5.771979E-1,0E0,9.889135E-1,0E0,0E0,0E0,0E0,0E0,0E0,0E0,0E0,0E0,0E0,0E0,0E0,0E0,0E0,0E0,0E0,0E0],"parents":[2147483647,0,0,1,1,2,2,3,3,4,4,5,5,6,6,7,7,8,8,9,9,10,10,11,11,12,12,13,13,15,15,17,17,18,18,19,19,22,22,24,24,25,25,27,27,28,28,31,31,35,35,36,36,38,38,40,40,42,42,43,43,45,45],"right_children":[2,4,6,8,10,12,14,16,18,20,22,24,26,28,-1,30,-1,32,34,36,-1,-1,38,-1,40,42,-1,44,46,-1,-1,48,-1,-1,-1,50,52,-1,54,-1,56,-1,58,60,-1,62,-1,-1,-1,-1,-1,-1,-1,-1,-1,-1,-1,-1,-1,-1,-1,-1,-1],"split_conditions":[4E0,2E0,4E0,6E0,5E0,8E0,5E0,3E0,2E0,4E0,5E0,6E0,3E0,5E0,-1.6648811E-1,7E0,-1.5890814E-1,6E0,5E0,6E0,2.5717372E-1,-1.5299362E-1,2E0,-1.7557064E-1,8E0,2E0,-1.4674525E-1,7E0,2E0,-1.139616E-1,4.9860667E-2,1E0,2.485286E-1,-1.2671484E-1,2.4803506E-2,3E0,3E0,2.5413045E-1,6E0,-1.5557101E-1,9E0,-1.4775784E-1,5E0,1E0,-1.5112612E-1,7E0,2.3824634E-1,2.0485325E-1,-1.2014125E-1,1.5365821E-1,-1.5313902E-1,2.7221507E-1,1.6019452E-2,-1.04579516E-1,1.1353407E-1,9.3446724E-2,-1.08797885E-1,2.6568195E-2,2.192087E-1,-5.8963117E-3,2.1264197E-1,1.9401921E-1,-9.711856E-2],"split_indices":[2,0,0,5,0,3,0,3,2,0,3,3,0,1,0,4,0,4,3,4,0,0,2,0,5,0,0,2,4,0,0,0,0,0,0,0,2,0,1,0,5,0,5,5,0,2,0,0,0,0,0,0,0,0,0,0,0,0,0,0,0,0,0],"split_type":[0,0,0,0,0,0,0,0,0,0,0,0,0,0,0,0,0,0,0,0,0,0,0,0,0,0,0,0,0,0,0,0,0,0,0,0,0,0,0,0,0,0,0,0,0,0,0,0,0,0,0,0,0,0,0,0,0,0,0,0,0,0,0],"sum_hessian":[1.4184184E2,6.2114197E1,7.972765E1,1.9053413E1,4.3060783E1,4.9447044E1,3.0280607E1,9.239143E0,9.81427E0,3.218763E1,1.0873155E1,3.6707493E1,1.273955E1,1.9240244E1,1.1040363E1,2.7295759E0,6.5095677E0,6.6607413E0,3.1535292E0,1.9286339E1,1.290129E1,4.4143076E0,6.4588466E0,2.7921644E1,8.785851E0,8.659214E0,4.080336E0,8.301134E0,1.0939111E1,1.6998398E0,1.029736E0,2.6736438E0,3.9870975E0,1.9829252E0,1.170604E0,1.0304655E1,8.981685E0,3.9859247E0,2.4729218E0,6.0032973E0,2.7825532E0,3.9554899E0,4.703724E0,5.122572E0,3.178562E0,2.47824E0,8.460871E0,1.4460993E0,1.2275445E0,5.4375076E0,4.8671474E0,6.833089E0,2.1485953E0,1.1023332E0,1.3705887E0,1.4532568E0,1.3292964E0,2.2132275E0,2.4904966E0,1.3394201E0,3.7831519E0,1.4541421E0,1.0240979E0],"tree_param":{"num_deleted":"0","num_feature":"6","num_nodes":"63","size_leaf_vector":"1"}},{"base_weights":[-1.3864556E-4,1.6221648E-1,-4.583196E-1,3.5092112E-1,-3.0295342E-1,-1.70615E-1,-3.6563125E-1,8.390639E-3,8.49456E-1,2.9827642E-1,-5.0356966E-1,4.705883E-2,-4.4896847E-1,2.0852639E-1,-4.9375364E-1,2.692388E-1,4.7538683E-1,-2.5106478E-1,6.9367313E-1,-1.7135534E-1,-2.0780432E-1,-1.9698821E-1,1.1581854E-1,-1.647658E-2,-4.8486385E-1,-3.9750358E-1,7.0238376E-1,-1.677216E-1,3.1311784E-2,-1.0314851E-1,2.25454E-1,-1.2370537E-1,2.8795395E-2,2.4750786E-1,7.9471394E-2,1.0121134E-1,-1.432769E-1,8.132589E-3,-1.00265965E-1,-3.1897753E-1,-1.6748434E-1,-1.4782271E-1,1.3222645E-2,8.655165E-2,2.811663E-1,-1.510427E-1,-1.2269665E-3],"categories":[],"categories_nodes":[],"categories_segments":[],"categories_sizes":[],"default_left":[0,0,0,0,0,0,0,0,0,0,0,0,0,0,0,0,0,0,0,0,0,0,0,0,0,0,0,0,0,0,0,0,0,0,0,0,0,0,0,0,0,0,0,0,0,0,0],"id":10,"left_children":[1,3,5,7,9,-1,11,13,15,17,19,21,23,25,27,-1,29,31,33,-1,35,37,-1,-1,39,41,43,-1,-1,-1,-1,-1,-1,-1,-1,-1,-1,-1,-1,45,-1,-1,-1,-1,-1,-1,-1],"loss_changes":[1.0515498E1,9.268384E0,1.7050838E-1,1.27517605E1,3.848177E0,0E0,8.088994E-1,4.6552496E0,1.1961746E-1,1.9766906E0,3.4846687E-1,4.6931466E-1,2.4426365E-1,1.0183344E1,5.742867E-1,0E0,1.5220178E0,2.7508876E-1,6.818414E-2,0E0,1.0316277E0,1.14418745E-1,0E0,0E0,3.4140587E-2,6.734545E-1,1.5369081E0,0E0,0E0,0E0,0E0,0E0,0E0,0E0,0E0,0E0,0E0,0E0,0E0,4.4405657E-1,0E0,0E0,0E0,0E0,0E0,0E0,0E0],"parents":[2147483647,0,0,1,1,2,2,3,3,4,4,6,6,7,7,8,8,9,9,10,10,11,11,12,12,13,13,14,14,16,16,17,17,18,18,20,20,21,21,24,24,25,25,26,26,39,39],"right_children":[2,4,6,8,10,-1,12,14,16,18,20,22,24,26,28,-1,30,32,34,-1,36,38,-1,-1,40,42,44,-1,-1,-1,-1,-1,-1,-1,-1,-1,-1,-1,-1,46,-1,-1,-1,-1,-1,-1,-1],"split_conditions":[7E0,4E0,4E0,3E0,1E0,-1.70615E-1,5E0,2E0,6E0,5E0,8E0,8E0,2E0,1E0,9E0,2.692388E-1,2E0,5E0,5E0,-1.7135534E-1,3E0,8E0,1.1581854E-1,-1.647658E-2,8E0,9E0,5E0,-1.677216E-1,3.1311784E-2,-1.0314851E-1,2.25454E-1,-1.2370537E-1,2.8795395E-2,2.4750786E-1,7.9471394E-2,1.0121134E-1,-1.432769E-1,8.132589E-3,-1.00265965E-1,3E0,-1.6748434E-1,-1.4782271E-1,1.3222645E-2,8.655165E-2,2.811663E-1,-1.510427E-1,-1.2269665E-3],"split_indices":[4,0,2,0,4,0,2,0,4,2,3,1,1,0,3,0,2,3,0,0,4,4,0,0,4,2,5,0,0,0,0,0,0,0,0,0,0,0,0,0,0,0,0,0,0,0,0],"split_type":[0,0,0,0,0,0,0,0,0,0,0,0,0,0,0,0,0,0,0,0,0,0,0,0,0,0,0,0,0,0,0,0,0,0,0,0,0,0,0,0,0,0,0,0,0,0,0],"sum_hessian":[1.3936064E2,1.0337571E2,3.5984936E1,7.371677E1,2.9658945E1,1.4079577E1,2.1905357E1,4.429775E1,2.9419016E1,7.298665E0,2.236028E1,3.753443E0,1.8151915E1,3.209187E1,1.220588E1,2.4832867E1,4.58615E0,3.2074504E0,4.091215E0,1.7441727E1,4.9185524E0,2.425938E0,1.3275051E0,1.7267148E0,1.64252E1,1.4497085E1,1.7594786E1,1.1063037E1,1.1428436E0,1.0943211E0,3.491829E0,2.0613182E0,1.1461321E0,2.4243424E0,1.6668726E0,1.5453107E0,3.3732417E0,1.2261376E0,1.1998001E0,6.678914E0,9.746286E0,1.1829797E1,2.667288E0,7.1761084E0,1.0418677E1,3.833748E0,2.845166E0],"tree_param":{"num_deleted":"0","num_feature":"6","num_nodes":"47","size_leaf_vector":"1"}},{"base_weights":[-9.737504E-4,4.9534175E-1,-3.7396702E-1,6.738323E-1,-3.5092348E-1,5.5103157E-2,-5.1458496E-1,1.5085001E-1,7.8168887E-1,-1.5589674E-1,1.0974885E-1,-2.4998583E-1,3.954729E-1,-2.6622564E-1,-1.6899422E-1,5.979586E-1,-1.3928431E-1,8.372303E-1,3.555662E-2,1.1429818E-2,4.154623E-2,-1.4208764E-1,4.8442213E-3,-1.7596376E-1,6.642485E-1,-1.4982837E-1,2.1886453E-1,2.4766044E-1,-5.6757694E-3,2.8969425E-1,6.155974E-1,-5.8092326E-3,2.499743E-2,2.0180646E-1,-1.02266185E-1,1.5862186E-2,-9.9413335E-2,2.758944E-2,7.889335E-1,-1.02917895E-1,1.8537328E-1,-1.149364E-1,2.2814237E-1,-1.8025363E-2,1.24438904E-1,3.8893078E-2,2.828693E-1],"categories":[],"categories_nodes":[],"categories_segments":[],"categories_sizes":[],"default_left":[0,0,0,0,0,0,0,0,0,0,0,0,0,0,0,0,0,0,0,0,0,0,0,0,0,0,0,0,0,0,0,0,0,0,0,0,0,0,0,0,0,0,0,0,0,0,0],"id":11,"left_children":[1,3,5,7,9,11,13,15,17,-1,19,21,23,25,-1,27,-1,29,31,-1,-1,-1,33,35,37,-1,39,-1,-1,-1,41,-1,-1,43,-1,-1,-1,-1,45,-1,-1,-1,-1,-1,-1,-1,-1],"loss_changes":[2.2176077E1,8.000397E0,4.1547356E0,2.295702E0,8.040407E-1,1.9456588E0,4.7459126E-1,2.6304948E0,1.4303894E0,0E0,1.7287321E-3,5.7168216E-1,1.4674609E0,1.281359E0,0E0,7.724657E-1,0E0,3.3763123E-1,1.0757472E-2,0E0,0E0,0E0,4.5419842E-1,1.456791E-1,3.6913276E-1,0E0,1.1221551E0,0E0,0E0,0E0,2.4288325E0,0E0,0E0,2.6108235E-1,0E0,0E0,0E0,0E0,3.8028574E-1,0E0,0E0,0E0,0E0,0E0,0E0,0E0,0E0],"parents":[2147483647,0,0,1,1,2,2,3,3,4,4,5,5,6,6,7,7,8,8,10,10,11,11,12,12,13,13,15,15,17,17,18,18,22,22,23,23,24,24,26,26,30,30,33,33,38,38],"right_children":[2,4,6,8,10,12,14,16,18,-1,20,22,24,26,-1,28,-1,30,32,-1,-1,-1,34,36,38,-1,40,-1,-1,-1,42,-1,-1,44,-1,-1,-1,-1,46,-1,-1,-1,-1,-1,-1,-1,-1],"split_conditions":[2E0,8E0,2E0,3E0,7E0,5E0,3E0,1E0,9E0,-1.5589674E-1,9E0,6E0,4E0,7E0,-1.6899422E-1,4E0,-1.3928431E-1,5E0,5E0,1.1429818E-2,4.154623E-2,-1.4208764E-1,5E0,3E0,4E0,-1.4982837E-1,6E0,2.4766044E-1,-5.6757694E-3,2.8969425E-1,2E0,-5.8092326E-3,2.499743E-2,6E0,-1.02266185E-1,1.5862186E-2,-9.9413335E-2,2.758944E-2,7E0,-1.02917895E-1,1.8537328E-1,-1.149364E-1,2.2814237E-1,-1.8025363E-2,1.24438904E-1,3.8893078E-2,2.828693E-1],"split_indices":[0,5,5,4,3,3,5,0,1,0,5,2,2,4,0,5,0,5,3,0,0,0,0,1,4,0,3,0,0,0,3,0,0,4,0,0,0,0,3,0,0,0,0,0,0,0,0],"split_type":[0,0,0,0,0,0,0,0,0,0,0,0,0,0,0,0,0,0,0,0,0,0,0,0,0,0,0,0,0,0,0,0,0,0,0,0,0,0,0,0,0,0,0,0,0,0,0],"sum_hessian":[1.17790825E2,5.0399624E1,6.73912E1,4.1789352E1,8.61027E0,1.6784492E1,5.0606705E1,7.554961E0,3.4234394E1,6.2082953E0,2.401975E0,8.990996E0,7.793495E0,9.360758E0,4.124595E1,4.3911595E0,3.1638017E0,3.1748936E1,2.485458E0,1.3534213E0,1.0485535E0,4.331269E0,4.659728E0,2.6035242E0,5.189971E0,6.301714E0,3.0590434E0,2.9606726E0,1.4304867E0,1.7976274E1,1.3772661E1,1.4327719E0,1.052686E0,3.2337573E0,1.4259707E0,1.319875E0,1.2836493E0,1.2393113E0,3.9506595E0,1.3285391E0,1.7305043E0,1.5364687E0,1.2236193E1,1.7723663E0,1.461391E0,1.0966653E0,2.8539941E0],"tree_param":{"num_deleted":"0","num_feature":"6","num_nodes":"47","size_leaf_vector":"1"}},{"base_weights":[-4.067048E-3,2.2707687E-1,-3.7461555E-1,5.9040677E-2,2.2600538E-1,-5.178511E-1,1.10214904E-1,2.7504578E-1,-3.3351648E-1,-1.6819073E-1,-3.35301E-1,-3.2194504E-1,3.4175768E-1,-2.6914537E-2,6.6578865E-1,-4.731437E-1,3.7082395E-1,-5.878316E-2,-1.4893821E-1,-1.2730782E-1,-1.0927719E-2,1.8723567E-1,-9.706842E-2,-1.5347451E-1,2.1120244E-1,2.5658656E-2,2.2284245E-1,-1.6212559E-1,-1.8993668E-1,-1.6290614E-2,1.8739289E-1,2.101511E-1,-1.1297204E-1,-1.1501E-1,5.706939E-2,-1.3052876E-1,1.13888405E-1,1.216475E-2,-1.1375001E-1,-9.334988E-2,2.007526E-1],"categories":[],"categories_nodes":[],"categories_segments":[],"categories_sizes":[],"default_left":[0,0,0,0,0,0,0,0,0,0,0,0,0,0,0,0,0,0,0,0,0,0,0,0,0,0,0,0,0,0,0,0,0,0,0,0,0,0,0,0,0],"id":12,"left_children":[1,3,5,7,-1,9,11,13,15,-1,17,19,21,23,25,27,29,31,-1,-1,-1,-1,33,-1,35,-1,-1,-1,37,-1,-1,39,-1,-1,-1,-1,-1,-1,-1,-1,-1],"loss_changes":[1.0721817E1,6.7740107E0,3.3963494E0,5.1393623E0,0E0,1.03300095E-1,1.28985E0,4.6132207E0,2.2978373E0,0E0,3.9725208E-1,1.1987984E-1,1.0719683E0,2.754396E0,6.969552E-1,2.48878E-1,4.7967613E-1,4.7721663E-1,0E0,0E0,0E0,0E0,4.0697438E-1,0E0,1.9159645E0,0E0,0E0,0E0,2.3708665E-1,0E0,0E0,9.655194E-1,0E0,0E0,0E0,0E0,0E0,0E0,0E0,0E0,0E0],"parents":[2147483647,0,0,1,1,2,2,3,3,5,5,6,6,7,7,8,8,10,10,11,11,12,12,13,13,14,14,15,15,16,16,17,17,22,22,24,24,28,28,31,31],"right_children":[2,4,6,8,-1,10,12,14,16,-1,18,20,22,24,26,28,30,32,-1,-1,-1,-1,34,-1,36,-1,-1,-1,38,-1,-1,40,-1,-1,-1,-1,-1,-1,-1,-1,-1],"split_conditions":[5E0,5E0,5E0,3E0,2.2600538E-1,8E0,3E0,2E0,9E0,-1.6819073E-1,9E0,7E0,9E0,5E0,2E0,7E0,3E0,3E0,-1.4893821E-1,-1.2730782E-1,-1.0927719E-2,1.8723567E-1,4E0,-1.5347451E-1,2E0,2.5658656E-2,2.2284245E-1,-1.6212559E-1,2E0,-1.6290614E-2,1.8739289E-1,2E0,-1.1297204E-1,-1.1501E-1,5.706939E-2,-1.3052876E-1,1.13888405E-1,1.216475E-2,-1.1375001E-1,-9.334988E-2,2.007526E-1],"split_indices":[3,0,0,0,0,2,2,0,2,0,2,4,3,5,2,2,5,0,0,0,0,0,5,0,2,0,0,0,3,0,0,0,0,0,0,0,0,0,0,0,0],"split_type":[0,0,0,0,0,0,0,0,0,0,0,0,0,0,0,0,0,0,0,0,0,0,0,0,0,0,0,0,0,0,0,0,0,0,0,0,0,0,0,0,0],"sum_hessian":[1.2318852E2,7.6103325E1,4.7085197E1,5.8527905E1,1.7575417E1,3.6294456E1,1.0790738E1,3.7946915E1,2.0580992E1,2.7725296E1,8.569161E0,3.6283042E0,7.162434E0,2.1930481E1,1.6016434E1,1.7449984E1,3.1310081E0,3.6578212E0,4.91134E0,2.312537E0,1.3157672E0,4.1012516E0,3.0611825E0,6.8465195E0,1.50839615E1,2.1241E0,1.3892333E1,1.3366582E1,4.083401E0,1.4643695E0,1.6666386E0,2.1646602E0,1.493161E0,1.3657824E0,1.6954002E0,2.7909505E0,1.2293011E1,2.195254E0,1.8881472E0,1.1643792E0,1.0002811E0],"tree_param":{"num_deleted":"0","num_feature":"6","num_nodes":"41","size_leaf_vector":"1"}},{"base_weights":[2.1381737E-3,2.7999163E-1,-2.2675112E-1,-2.7118277E-2,4.0949893E-1,-4.237888E-1,8.0503546E-2,-4.1373506E-1,3.0841115E-1,5.9311662E-2,4.940126E-1,-5.2065104E-1,-1.4279073E-1,3.9052704E-1,-1.5723833E-1,-1.3432202E-1,-1.4910725E-1,5.475688E-1,-2.2915618E-1,-1.8237665E-1,1.3181816E-1,5.6308657E-1,2.5790325E-1,-1.6785537E-1,-3.5266462E-1,2.9234251E-2,-1.4179002E-1,4.432688E-2,5.4974467E-1,-1.0297877E-1,4.9958725E-2,1.9053592E-1,2.0855011E-1,-1.1699667E-1,2.5386078E-2,-1.3184516E-1,2.7929276E-2,4.2319447E-1,2.1235503E-1,-1.21826716E-1,4.94269E-1,-5.130119E-2,-1.5426339E-1,2.3847592E-1,-1.299869E-1,-3.1835732E-1,1.6803247E-1,6.594434E-1,9.528015E-2,1.7343205E-1,-1.06315464E-1,7.86785E-2,-9.624788E-2,2.091813E-1,4.221368E-3,2.1250732E-1,1.1343395E-2,9.659382E-2,-1.1062584E-1,-1.0761858E-1,1.423792E-1,-1.3844511E-1,2.6800191E-2,2.1340083E-1,8.314009E-2,-1.3147815E-1,1.6257079E-1],"categories":[],"categories_nodes":[],"categories_segments":[],"categories_sizes":[],"default_left":[0,0,0,0,0,0,0,0,0,0,0,0,0,0,0,0,0,0,0,0,0,0,0,0,0,0,0,0,0,0,0,0,0,0,0,0,0,0,0,0,0,0,0,0,0,0,0,0,0,0,0,0,0,0,0,0,0,0,0,0,0,0,0,0,0,0,0],"id":13,"left_children":[1,3,5,7,9,11,13,15,17,19,21,23,25,27,-1,29,-1,31,33,35,-1,37,39,-1,41,43,-1,45,47,-1,-1,49,-1,-1,-1,-1,51,53,-1,-1,55,57,-1,59,-1,61,-1,63,65,-1,-1,-1,-1,-1,-1,-1,-1,-1,-1,-1,-1,-1,-1,-1,-1,-1,-1],"loss_changes":[8.226642E0,2.3348136E0,4.3283825E0,2.4972756E0,1.1887622E0,1.1062918E0,5.5573044E0,1.407007E-1,1.4564686E0,9.195721E-1,3.9328194E-1,1.08242035E-2,7.2292876E-1,1.0476952E0,0E0,2.7198398E-1,0E0,2.606759E-1,2.2944552E-1,3.5252804E-1,0E0,2.0065546E-1,1.6631973E0,0E0,3.9692712E-1,9.893777E-1,0E0,1.5279253E0,5.9696794E-1,0E0,0E0,9.566376E-1,0E0,0E0,0E0,0E0,4.4386283E-1,1.6775622E0,0E0,0E0,6.888511E-1,6.099296E-1,0E0,1.150099E0,0E0,3.256068E-1,0E0,1.1022568E-2,1.129249E0,0E0,0E0,0E0,0E0,0E0,0E0,0E0,0E0,0E0,0E0,0E0,0E0,0E0,0E0,0E0,0E0,0E0,0E0],"parents":[2147483647,0,0,1,1,2,2,3,3,4,4,5,5,6,6,7,7,8,8,9,9,10,10,11,11,12,12,13,13,15,15,17,17,18,18,19,19,21,21,22,22,24,24,25,25,27,27,28,28,31,31,36,36,37,37,40,40,41,41,43,43,45,45,47,47,48,48],"right_children":[2,4,6,8,10,12,14,16,18,20,22,24,26,28,-1,30,-1,32,34,36,-1,38,40,-1,42,44,-1,46,48,-1,-1,50,-1,-1,-1,-1,52,54,-1,-1,56,58,-1,60,-1,62,-1,64,66,-1,-1,-1,-1,-1,-1,-1,-1,-1,-1,-1,-1,-1,-1,-1,-1,-1,-1],"split_conditions":[4E0,2E0,4E0,6E0,2E0,8E0,5E0,3E0,2E0,7E0,5E0,6E0,8E0,4E0,-1.5723833E-1,5E0,-1.4910725E-1,6E0,5E0,3E0,1.3181816E-1,4E0,5E0,-1.6785537E-1,4E0,9E0,-1.4179002E-1,6E0,9E0,-1.0297877E-1,4.9958725E-2,1E0,2.0855011E-1,-1.1699667E-1,2.5386078E-2,-1.3184516E-1,5E0,3E0,2.1235503E-1,-1.21826716E-1,2E0,7E0,-1.5426339E-1,2E0,-1.299869E-1,7E0,1.6803247E-1,9E0,5E0,1.7343205E-1,-1.06315464E-1,7.86785E-2,-9.624788E-2,2.091813E-1,4.221368E-3,2.1250732E-1,1.1343395E-2,9.659382E-2,-1.1062584E-1,-1.0761858E-1,1.423792E-1,-1.3844511E-1,2.6800191E-2,2.1340083E-1,8.314009E-2,-1.3147815E-1,1.6257079E-1],"split_indices":[2,0,0,5,3,3,0,3,2,4,0,3,2,4,0,5,0,4,3,0,0,0,3,0,4,3,0,5,2,0,0,0,0,0,0,0,0,0,0,0,2,2,0,0,0,1,0,4,3,0,0,0,0,0,0,0,0,0,0,0,0,0,0,0,0,0,0],"split_type":[0,0,0,0,0,0,0,0,0,0,0,0,0,0,0,0,0,0,0,0,0,0,0,0,0,0,0,0,0,0,0,0,0,0,0,0,0,0,0,0,0,0,0,0,0,0,0,0,0,0,0,0,0,0,0,0,0,0,0,0,0,0,0,0,0,0,0],"sum_hessian":[1.2735614E2,5.7424313E1,6.993182E1,1.7267431E1,4.0156883E1,4.2376896E1,2.7554926E1,7.9146376E0,9.352794E0,8.138079E0,3.2018803E1,3.0879597E1,1.1497302E1,1.8449228E1,9.105698E0,2.4174488E0,5.4971886E0,6.4601436E0,2.8926504E0,5.2926993E0,2.8453796E0,2.3700382E1,8.318421E0,2.3184654E1,7.6949406E0,8.155355E0,3.3419464E0,6.2146335E0,1.2234594E1,1.3434522E0,1.0739967E0,2.5595722E0,3.9005713E0,1.751827E0,1.1408234E0,1.8910639E0,3.4016354E0,1.4048235E1,9.652147E0,1.9952804E0,6.3231406E0,3.14519E0,4.549751E0,5.9486446E0,2.2067108E0,3.8735907E0,2.341043E0,9.492306E0,2.742289E0,1.4601504E0,1.0994217E0,2.182918E0,1.2187175E0,7.9908E0,6.0574355E0,3.9286563E0,2.3944845E0,1.4389336E0,1.7062563E0,1.5384077E0,4.410237E0,2.7694044E0,1.1041862E0,7.6000834E0,1.8922219E0,1.2580864E0,1.4842026E0],"tree_param":{"num_deleted":"0","num_feature":"6","num_nodes":"67","size_leaf_vector":"1"}},{"base_weights":[1.2349794E-3,1.4396587E-1,-4.2139816E-1,3.0027783E-1,-2.6444343E-1,-3.2962546E-1,-1.6366547E-1,1.4659258E-2,7.1336424E-1,2.8023693E-1,-4.6995717E-1,-4.24621E-1,-1.2543328E-1,1.8585901E-1,-4.5864314E-1,2.2576292E-1,4.0263546E-1,-2.175011E-1,6.0487103E-1,-1.6284785E-1,-1.792893E-1,-1.5843321E-1,-1.3071099E-1,1.2043609E-1,-3.087184E-1,-3.604496E-1,5.840818E-1,-1.5894449E-1,2.8295789E-2,-2.205065E-2,1.8156502E-1,-1.1317676E-1,2.7626935E-2,2.1408886E-1,7.108309E-2,-1.336505E-1,8.9916795E-2,4.2581424E-2,-2.3742367E-1,-3.9395787E-2,1.21980466E-1,-5.2979263E-3,-1.2917459E-1,-1.5846476E-1,-2.3540432E-2,2.594616E-1,8.2915686E-2,1.437128E-2,-1.128512E-1],"categories":[],"categories_nodes":[],"categories_segments":[],"categories_sizes":[],"default_left":[0,0,0,0,0,0,0,0,0,0,0,0,0,0,0,0,0,0,0,0,0,0,0,0,0,0,0,0,0,0,0,0,0,0,0,0,0,0,0,0,0,0,0,0,0,0,0,0,0],"id":14,"left_children":[1,3,5,7,9,11,-1,13,15,17,19,21,23,25,27,-1,29,31,33,-1,35,-1,37,39,41,43,45,-1,-1,-1,-1,-1,-1,-1,-1,-1,-1,-1,47,-1,-1,-1,-1,-1,-1,-1,-1,-1,-1],"loss_changes":[7.6994905E0,6.170206E0,1.8732977E-1,8.185747E0,3.1473753E0,3.5514522E-1,0E0,3.4959033E0,4.2453766E-2,1.4252994E0,3.248844E-1,3.552947E-1,4.023983E-1,7.0900826E0,5.0134754E-1,0E0,5.58402E-1,2.2744101E-1,3.5407305E-2,0E0,8.3344764E-1,0E0,1.7806481E-1,3.5458177E-1,1.6703916E-1,6.185169E-1,1.3741674E0,0E0,0E0,0E0,0E0,0E0,0E0,0E0,0E0,0E0,0E0,0E0,1.7400827E-1,0E0,0E0,0E0,0E0,0E0,0E0,0E0,0E0,0E0,0E0],"parents":[2147483647,0,0,1,1,2,2,3,3,4,4,5,5,7,7,8,8,9,9,10,10,11,11,12,12,13,13,14,14,16,16,17,17,18,18,20,20,22,22,23,23,24,24,25,25,26,26,38,38],"right_children":[2,4,6,8,10,12,-1,14,16,18,20,22,24,26,28,-1,30,32,34,-1,36,-1,38,40,42,44,46,-1,-1,-1,-1,-1,-1,-1,-1,-1,-1,-1,48,-1,-1,-1,-1,-1,-1,-1,-1,-1,-1],"split_conditions":[7E0,4E0,9E0,3E0,1E0,7E0,-1.6366547E-1,2E0,6E0,5E0,8E0,8E0,6E0,1E0,9E0,2.2576292E-1,4E0,5E0,5E0,-1.6284785E-1,6E0,-1.5843321E-1,2E0,9E0,3E0,7E0,3E0,-1.5894449E-1,2.8295789E-2,-2.205065E-2,1.8156502E-1,-1.1317676E-1,2.7626935E-2,2.1408886E-1,7.108309E-2,-1.336505E-1,8.9916795E-2,4.2581424E-2,3E0,-3.9395787E-2,1.21980466E-1,-5.2979263E-3,-1.2917459E-1,-1.5846476E-1,-2.3540432E-2,2.594616E-1,8.2915686E-2,1.437128E-2,-1.128512E-1],"split_indices":[4,0,4,0,4,1,0,0,4,2,3,3,2,0,3,0,2,3,0,0,2,0,1,5,5,5,4,0,0,0,0,0,0,0,0,0,0,0,5,0,0,0,0,0,0,0,0,0,0],"split_type":[0,0,0,0,0,0,0,0,0,0,0,0,0,0,0,0,0,0,0,0,0,0,0,0,0,0,0,0,0,0,0,0,0,0,0,0,0,0,0,0,0,0,0,0,0,0,0,0,0],"sum_hessian":[1.2563243E2,9.440837E1,3.1224062E1,6.8468094E1,2.5940277E1,2.0054787E1,1.1169276E1,4.1091717E1,2.737638E1,7.006667E0,1.8933609E1,1.2950405E1,7.1043816E0,3.0622475E1,1.046924E1,2.3048414E1,4.3279657E0,2.8961782E0,4.110489E0,1.4444848E1,4.4887614E0,8.9885645E0,3.9618406E0,3.1806178E0,3.9237635E0,1.2950698E1,1.7671776E1,9.31249E0,1.1567502E0,1.4819741E0,2.8459916E0,1.7662152E0,1.1299629E0,2.447439E0,1.6630499E0,2.930233E0,1.5585285E0,1.0215929E0,2.9402475E0,1.9798995E0,1.2007184E0,1.495892E0,2.4278715E0,7.5722966E0,5.3784018E0,8.293077E0,9.378699E0,1.1761912E0,1.7640564E0],"tree_param":{"num_deleted":"0","num_feature":"6","num_nodes":"49","size_leaf_vector":"1"}},{"base_weights":[6.887594E-4,4.0350366E-1,-3.4094706E-1,5.483546E-1,-3.2894868E-1,6.26334E-2,-4.910298E-1,1.118821E-1,6.350989E-1,-1.4962043E-1,8.736165E-2,-2.1064028E-1,3.3647254E-1,-2.3807845E-1,-1.6321687E-1,4.84453E-1,-1.3265419E-1,2.4177139E-1,4.0867206E-1,6.8460554E-3,3.565596E-2,-1.3281475E-1,2.4395242E-2,-1.5310794E-1,5.466504E-1,-1.4128146E-1,1.7801678E-1,2.08687E-1,-1.7973358E-2,6.774993E-1,8.7640174E-2,1.9020782E-1,-9.209797E-2,-9.4648466E-2,1.7160246E-2,2.6205316E-1,2.4001993E-1,-9.9377245E-2,1.5435974E-1,1.23866135E-2,2.3688409E-1,-1.5458846E-1,1.6154426E-1,-1.6475009E-2,1.1441312E-1,1.5589827E-3,1.1471691E-1],"categories":[],"categories_nodes":[],"categories_segments":[],"categories_sizes":[],"default_left":[0,0,0,0,0,0,0,0,0,0,0,0,0,0,0,0,0,0,0,0,0,0,0,0,0,0,0,0,0,0,0,0,0,0,0,0,0,0,0,0,0,0,0,0,0,0,0],"id":15,"left_children":[1,3,5,7,9,11,13,15,17,-1,19,21,23,25,-1,27,-1,-1,29,-1,-1,-1,31,33,35,-1,37,-1,-1,39,41,43,-1,-1,-1,45,-1,-1,-1,-1,-1,-1,-1,-1,-1,-1,-1],"loss_changes":[1.497205E1,5.4774265E0,3.5965047E0,1.5213346E0,6.704223E-1,1.3314182E0,4.4756603E-1,1.9041746E0,1.0193071E0,0E0,4.238993E-3,5.042274E-1,9.8907125E-1,9.7856694E-1,0E0,6.5923655E-1,0E0,0E0,1.4097636E0,0E0,0E0,0E0,3.574299E-1,1.3497919E-1,2.5009453E-1,0E0,8.626719E-1,0E0,0E0,6.176505E-1,2.6986125E0,2.1985073E-1,0E0,0E0,0E0,1.3678637E-1,0E0,0E0,0E0,0E0,0E0,0E0,0E0,0E0,0E0,0E0,0E0],"parents":[2147483647,0,0,1,1,2,2,3,3,4,4,5,5,6,6,7,7,8,8,10,10,11,11,12,12,13,13,15,15,18,18,22,22,23,23,24,24,26,26,29,29,30,30,31,31,35,35],"right_children":[2,4,6,8,10,12,14,16,18,-1,20,22,24,26,-1,28,-1,-1,30,-1,-1,-1,32,34,36,-1,38,-1,-1,40,42,44,-1,-1,-1,46,-1,-1,-1,-1,-1,-1,-1,-1,-1,-1,-1],"split_conditions":[2E0,8E0,2E0,3E0,7E0,5E0,3E0,1E0,5E0,-1.4962043E-1,9E0,6E0,4E0,7E0,-1.6321687E-1,7E0,-1.3265419E-1,2.4177139E-1,1E0,6.8460554E-3,3.565596E-2,-1.3281475E-1,5E0,4E0,7E0,-1.4128146E-1,6E0,2.08687E-1,-1.7973358E-2,3E0,7E0,2E0,-9.209797E-2,-9.4648466E-2,1.7160246E-2,1E0,2.4001993E-1,-9.9377245E-2,1.5435974E-1,1.23866135E-2,2.3688409E-1,-1.5458846E-1,1.6154426E-1,-1.6475009E-2,1.1441312E-1,1.5589827E-3,1.1471691E-1],"split_indices":[0,5,5,4,3,3,5,0,5,0,5,2,2,4,0,1,0,0,0,0,0,0,0,0,4,0,1,0,0,3,4,3,0,0,0,5,0,0,0,0,0,0,0,0,0,0,0],"split_type":[0,0,0,0,0,0,0,0,0,0,0,0,0,0,0,0,0,0,0,0,0,0,0,0,0,0,0,0,0,0,0,0,0,0,0,0,0,0,0,0,0,0,0,0,0,0,0],"sum_hessian":[1.0679616E2,4.8926712E1,5.786945E1,4.10583E1,7.868412E0,1.5844749E1,4.20247E1,7.18669E0,3.387161E1,5.448382E0,2.4200304E0,8.046076E0,7.798673E0,8.234341E0,3.379036E1,4.372264E0,2.8144262E0,1.7848394E1,1.6023216E1,1.3591391E0,1.0608913E0,3.6039252E0,4.4421506E0,2.4239492E0,5.374724E0,5.1951632E0,3.0391772E0,2.9500234E0,1.4222403E0,8.116337E0,7.906879E0,3.2446795E0,1.1974709E0,1.0855818E0,1.3383675E0,3.4897096E0,1.8850145E0,1.2154188E0,1.8237584E0,1.4209876E0,6.695349E0,3.3216639E0,4.585215E0,1.7340046E0,1.510675E0,1.4461366E0,2.0435731E0],"tree_param":{"num_deleted":"0","num_feature":"6","num_nodes":"47","size_leaf_vector":"1"}},{"base_weights":[-6.663457E-3,1.9945547E-1,-3.491039E-1,5.1907465E-2,1.9976889E-1,-4.9265707E-1,8.879517E-2,2.3752534E-1,-3.0282283E-1,-1.6213877E-1,-3.0492136E-1,-2.9162493E-1,2.8632298E-1,-1.8583398E-2,5.7430714E-1,-4.4584855E-1,3.1187385E-1,-4.5750707E-2,-1.4098012E-1,-6.3202945E-3,-1.1904811E-1,1.6265921E-1,-9.985553E-2,-3.6287534E-1,2.3947968E-1,1.1494023E-1,1.9944136E-1,-1.5526423E-1,-1.6682386E-1,-1.5258866E-2,1.5456611E-1,1.8894754E-1,-1.0408325E-1,-1.1029262E-1,5.3119592E-2,2.6524069E-2,-1.610471E-1,1.4163977E-1,-6.4440936E-2,1.5762407E-1,-1.10769175E-1,1.2015499E-2,-1.0439158E-1,-8.612326E-2,1.6550577E-1],"categories":[],"categories_nodes":[],"categories_segments":[],"categories_sizes":[],"default_left":[0,0,0,0,0,0,0,0,0,0,0,0,0,0,0,0,0,0,0,0,0,0,0,0,0,0,0,0,0,0,0,0,0,0,0,0,0,0,0,0,0,0,0,0,0],"id":16,"left_children":[1,3,5,7,-1,9,11,13,15,-1,17,19,21,23,25,27,29,31,-1,-1,-1,-1,33,35,37,39,-1,-1,41,-1,-1,43,-1,-1,-1,-1,-1,-1,-1,-1,-1,-1,-1,-1,-1],"loss_changes":[7.8195753E0,4.7264633E0,2.6600456E0,3.6037285E0,0E0,1.17881775E-1,9.1929805E-1,3.0962265E0,1.797636E0,0E0,3.500213E-1,1.13942325E-1,8.274369E-1,1.9784218E0,5.672903E-1,2.2806978E-1,3.322682E-1,3.8275912E-1,0E0,0E0,0E0,0E0,3.589954E-1,7.9466116E-1,1.4511641E0,9.407514E-1,0E0,0E0,1.8963817E-1,0E0,0E0,7.0565534E-1,0E0,0E0,0E0,0E0,0E0,0E0,0E0,0E0,0E0,0E0,0E0,0E0,0E0],"parents":[2147483647,0,0,1,1,2,2,3,3,5,5,6,6,7,7,8,8,10,10,11,11,12,12,13,13,14,14,15,15,16,16,17,17,22,22,23,23,24,24,25,25,28,28,31,31],"right_children":[2,4,6,8,-1,10,12,14,16,-1,18,20,22,24,26,28,30,32,-1,-1,-1,-1,34,36,38,40,-1,-1,42,-1,-1,44,-1,-1,-1,-1,-1,-1,-1,-1,-1,-1,-1,-1,-1],"split_conditions":[5E0,5E0,5E0,3E0,1.9976889E-1,8E0,3E0,2E0,9E0,-1.6213877E-1,9E0,7E0,9E0,6E0,3E0,7E0,3E0,3E0,-1.4098012E-1,-6.3202945E-3,-1.1904811E-1,1.6265921E-1,3E0,1E0,1E0,1E0,1.9944136E-1,-1.5526423E-1,4E0,-1.5258866E-2,1.5456611E-1,2E0,-1.0408325E-1,-1.1029262E-1,5.3119592E-2,2.6524069E-2,-1.610471E-1,1.4163977E-1,-6.4440936E-2,1.5762407E-1,-1.10769175E-1,1.2015499E-2,-1.0439158E-1,-8.612326E-2,1.6550577E-1],"split_indices":[3,0,0,0,0,2,2,0,2,0,2,3,3,5,2,2,5,0,0,0,0,0,4,3,0,3,0,0,1,0,0,0,0,0,0,0,0,0,0,0,0,0,0,0,0],"split_type":[0,0,0,0,0,0,0,0,0,0,0,0,0,0,0,0,0,0,0,0,0,0,0,0,0,0,0,0,0,0,0,0,0,0,0,0,0,0,0,0,0,0,0,0,0],"sum_hessian":[1.0879832E2,6.817845E1,4.0619865E1,5.263868E1,1.5539773E1,3.0497162E1,1.0122701E1,3.477339E1,1.7865286E1,2.2809935E1,7.6872277E0,3.2968678E0,6.8258333E0,2.0289148E1,1.4484244E1,1.4715918E1,3.1493688E0,3.4872935E0,4.1999345E0,1.2590696E0,2.0377984E0,3.8625653E0,2.9632678E0,8.518345E0,1.1770803E1,2.757451E0,1.1726793E1,1.1027435E1,3.6884818E0,1.4006717E0,1.7486972E0,2.1694605E0,1.317833E0,1.3399293E0,1.6233386E0,2.5067062E0,6.0116386E0,7.758258E0,4.0125456E0,1.4462004E0,1.3112508E0,2.085589E0,1.6028929E0,1.0284274E0,1.1410332E0],"tree_param":{"num_deleted":"0","num_feature":"6","num_nodes":"45","size_leaf_vector":"1"}},{"base_weights":[1.8085532E-4,2.4929504E-1,-2.1469079E-1,-1.1693163E-2,3.5645494E-1,-4.0104473E-1,6.364341E-2,-3.727155E-1,2.7663708E-1,5.020599E-2,4.3044293E-1,-4.9644342E-1,-1.4282072E-1,3.2073477E-1,-1.4928904E-1,-2.5608577E-2,-1.410283E-1,4.8391855E-1,-2.0030996E-1,-2.2927907E-1,3.1998694E-1,4.9140844E-1,2.229074E-1,-1.61293E-1,-3.2663834E-1,1.6144842E-2,-1.3037856E-1,4.8785944E-2,5.053899E-1,1.6412652E-1,1.845319E-1,-1.0864633E-1,2.7962228E-2,-1.2696181E-1,2.467695E-2,1.3376828E-1,-2.3127366E-3,3.663001E-1,1.8760225E-1,-1.10207714E-1,4.1608512E-1,-4.7054015E-2,-1.4514093E-1,-1.3035218E-1,3.433904E-1,3.5765892E-1,-1.3674743E-1,1.9375764E-1,5.6399924E-1,1.5200639E-1,-9.86982E-2,1.8043806E-1,5.5591026E-3,1.8354565E-1,6.6423155E-3,8.267695E-2,-1.0251423E-1,1.6117318E-1,9.8237945E-3,-2.3919942E-2,1.5328339E-1,9.041646E-2,-6.694469E-3,1.8702078E-1,7.005684E-2],"categories":[],"categories_nodes":[],"categories_segments":[],"categories_sizes":[],"default_left":[0,0,0,0,0,0,0,0,0,0,0,0,0,0,0,0,0,0,0,0,0,0,0,0,0,0,0,0,0,0,0,0,0,0,0,0,0,0,0,0,0,0,0,0,0,0,0,0,0,0,0,0,0,0,0,0,0,0,0,0,0,0,0,0,0],"id":17,"left_children":[1,3,5,7,9,11,13,15,17,19,21,23,25,27,-1,-1,-1,29,31,33,35,37,39,-1,41,43,-1,45,47,49,-1,-1,-1,-1,-1,-1,-1,51,-1,-1,53,55,-1,-1,57,59,-1,61,63,-1,-1,-1,-1,-1,-1,-1,-1,-1,-1,-1,-1,-1,-1,-1,-1],"loss_changes":[6.1603928E0,1.4947491E0,3.2305593E0,1.81876E0,8.352332E-1,8.442135E-1,3.85989E0,1.7657685E-1,1.0595977E0,7.1352965E-1,2.7414703E-1,1.1334896E-2,5.369563E-1,8.890593E-1,0E0,0E0,0E0,1.9608307E-1,2.0748395E-1,3.2194656E-1,1.9890594E-1,1.4977789E-1,1.1466742E0,0E0,3.1846827E-1,1.3821156E0,0E0,1.4824297E0,8.6702585E-2,7.450185E-1,0E0,0E0,0E0,0E0,0E0,0E0,0E0,1.1422795E0,0E0,0E0,5.289513E-1,4.651609E-1,0E0,0E0,3.0770093E-1,4.303704E-1,0E0,8.165434E-2,2.1450281E-2,0E0,0E0,0E0,0E0,0E0,0E0,0E0,0E0,0E0,0E0,0E0,0E0,0E0,0E0,0E0,0E0],"parents":[2147483647,0,0,1,1,2,2,3,3,4,4,5,5,6,6,7,7,8,8,9,9,10,10,11,11,12,12,13,13,17,17,18,18,19,19,20,20,21,21,22,22,24,24,25,25,27,27,28,28,29,29,37,37,40,40,41,41,44,44,45,45,47,47,48,48],"right_children":[2,4,6,8,10,12,14,16,18,20,22,24,26,28,-1,-1,-1,30,32,34,36,38,40,-1,42,44,-1,46,48,50,-1,-1,-1,-1,-1,-1,-1,52,-1,-1,54,56,-1,-1,58,60,-1,62,64,-1,-1,-1,-1,-1,-1,-1,-1,-1,-1,-1,-1,-1,-1,-1,-1],"split_conditions":[4E0,2E0,4E0,6E0,2E0,8E0,5E0,1E0,2E0,5E0,5E0,6E0,3E0,5E0,-1.4928904E-1,-2.5608577E-2,-1.410283E-1,6E0,5E0,4E0,6E0,4E0,5E0,-1.61293E-1,4E0,2E0,-1.3037856E-1,7E0,2E0,1E0,1.845319E-1,-1.0864633E-1,2.7962228E-2,-1.2696181E-1,2.467695E-2,1.3376828E-1,-2.3127366E-3,3E0,1.8760225E-1,-1.10207714E-1,2E0,7E0,-1.4514093E-1,-1.3035218E-1,7E0,1E0,-1.3674743E-1,5E0,9E0,1.5200639E-1,-9.86982E-2,1.8043806E-1,5.5591026E-3,1.8354565E-1,6.6423155E-3,8.267695E-2,-1.0251423E-1,1.6117318E-1,9.8237945E-3,-2.3919942E-2,1.5328339E-1,9.041646E-2,-6.694469E-3,1.8702078E-1,7.005684E-2],"split_indices":[2,0,0,5,3,3,0,2,2,4,0,3,0,1,0,0,0,4,3,0,1,0,3,0,4,0,0,2,4,0,0,0,0,0,0,0,0,0,0,0,2,2,0,0,2,5,0,3,2,0,0,0,0,0,0,0,0,0,0,0,0,0,0,0,0],"split_type":[0,0,0,0,0,0,0,0,0,0,0,0,0,0,0,0,0,0,0,0,0,0,0,0,0,0,0,0,0,0,0,0,0,0,0,0,0,0,0,0,0,0,0,0,0,0,0,0,0,0,0,0,0,0,0,0,0,0,0,0,0,0,0,0,0],"sum_hessian":[1.13088326E2,5.2296967E1,6.079136E1,1.5481822E1,3.6815144E1,3.6148125E1,2.4643236E1,6.744398E0,8.737424E0,7.490259E0,2.9324884E1,2.5722595E1,1.0425528E1,1.7195429E1,7.447808E0,2.182042E0,4.562356E0,6.080303E0,2.6571205E0,3.752701E0,3.7375581E0,2.1609163E1,7.715721E0,1.8956848E1,6.7657475E0,7.3601904E0,3.0653374E0,7.4652567E0,9.730172E0,2.4235575E0,3.656746E0,1.5619974E0,1.0951232E0,2.0920033E0,1.6606976E0,2.439543E0,1.2980151E0,1.3103729E1,8.505434E0,1.680176E0,6.035545E0,2.9022512E0,3.8634963E0,2.9583943E0,4.4017963E0,4.811406E0,2.6538508E0,2.2219152E0,7.508257E0,1.4138615E0,1.009696E0,7.3823476E0,5.7213817E0,3.6626656E0,2.3728793E0,1.4162356E0,1.4860156E0,2.2612462E0,2.1405501E0,1.3731215E0,3.4382844E0,1.2195718E0,1.0023434E0,5.6129503E0,1.8953066E0],"tree_param":{"num_deleted":"0","num_feature":"6","num_nodes":"65","size_leaf_vector":"1"}},{"base_weights":[4.1753766E-3,1.326568E-1,-3.8857988E-1,2.6719472E-1,-2.3179947E-1,-2.9519612E-1,-1.5591331E-1,1.9020503E-2,6.310998E-1,2.6173738E-1,-4.41382E-1,-3.8895202E-1,-1.0727124E-1,1.6707096E-1,-4.2596143E-1,2.0149867E-1,3.3568153E-1,-1.9308735E-1,5.393053E-1,-1.558973E-1,-1.5737194E-1,-1.4993416E-1,-1.0879736E-1,-2.7985206E-1,1.0502577E-1,-3.2275644E-1,4.9617428E-1,-1.5111418E-1,2.6337322E-2,-2.4483057E-2,1.5936059E-1,-1.0496079E-1,2.6014237E-2,1.883378E-1,6.662344E-2,8.711849E-2,-1.2709399E-1,3.8167384E-2,-2.0964026E-1,-1.2712485E-1,3.1575654E-2,1.3645779E-1,-1.0198832E-1,-1.3017507E-1,3.0149095E-2,6.934631E-2,2.280205E-1,1.3842979E-2,-1.036716E-1],"categories":[],"categories_nodes":[],"categories_segments":[],"categories_sizes":[],"default_left":[0,0,0,0,0,0,0,0,0,0,0,0,0,0,0,0,0,0,0,0,0,0,0,0,0,0,0,0,0,0,0,0,0,0,0,0,0,0,0,0,0,0,0,0,0,0,0,0,0],"id":18,"left_children":[1,3,5,7,9,11,-1,13,15,17,19,21,23,25,27,-1,29,31,33,-1,35,-1,37,39,41,43,45,-1,-1,-1,-1,-1,-1,-1,-1,-1,-1,-1,47,-1,-1,-1,-1,-1,-1,-1,-1,-1,-1],"loss_changes":[5.740816E0,4.2640295E0,1.9001102E-1,5.6828356E0,2.5609221E0,2.8766537E-1,0E0,2.6089356E0,8.053303E-2,1.0730219E0,2.9541016E-1,3.210603E-1,3.0796653E-1,4.9354334E0,4.396242E-1,0E0,4.5799172E-1,1.9023564E-1,1.7681122E-3,0E0,7.311212E-1,0E0,1.3867435E-1,2.921339E-1,7.9856837E-1,6.322068E-1,1.0910335E0,0E0,0E0,0E0,0E0,0E0,0E0,0E0,0E0,0E0,0E0,0E0,1.4371331E-1,0E0,0E0,0E0,0E0,0E0,0E0,0E0,0E0,0E0,0E0],"parents":[2147483647,0,0,1,1,2,2,3,3,4,4,5,5,7,7,8,8,9,9,10,10,11,11,12,12,13,13,14,14,16,16,17,17,18,18,20,20,22,22,23,23,24,24,25,25,26,26,38,38],"right_children":[2,4,6,8,10,12,-1,14,16,18,20,22,24,26,28,-1,30,32,34,-1,36,-1,38,40,42,44,46,-1,-1,-1,-1,-1,-1,-1,-1,-1,-1,-1,48,-1,-1,-1,-1,-1,-1,-1,-1,-1,-1],"split_conditions":[7E0,4E0,9E0,3E0,1E0,7E0,-1.5591331E-1,2E0,6E0,5E0,8E0,8E0,3E0,1E0,9E0,2.0149867E-1,4E0,5E0,5E0,-1.558973E-1,3E0,-1.4993416E-1,2E0,9E0,4E0,9E0,6E0,-1.5111418E-1,2.6337322E-2,-2.4483057E-2,1.5936059E-1,-1.0496079E-1,2.6014237E-2,1.883378E-1,6.662344E-2,8.711849E-2,-1.2709399E-1,3.8167384E-2,3E0,-1.2712485E-1,3.1575654E-2,1.3645779E-1,-1.0198832E-1,-1.3017507E-1,3.0149095E-2,6.934631E-2,2.280205E-1,1.3842979E-2,-1.036716E-1],"split_indices":[4,0,4,0,4,1,0,0,4,2,3,3,0,0,3,0,2,3,0,0,4,0,1,1,0,2,5,0,0,0,0,0,0,0,0,0,0,0,5,0,0,0,0,0,0,0,0,0,0],"split_type":[0,0,0,0,0,0,0,0,0,0,0,0,0,0,0,0,0,0,0,0,0,0,0,0,0,0,0,0,0,0,0,0,0,0,0,0,0,0,0,0,0,0,0,0,0,0,0,0,0],"sum_hessian":[1.1174416E2,8.469897E1,2.70452E1,6.2057495E1,2.2641468E1,1.7695019E1,9.350183E0,3.7521225E1,2.4536272E1,6.674687E0,1.5966782E1,1.1091659E1,6.6033597E0,2.8622684E1,8.898541E0,2.0454214E1,4.0820575E0,2.644974E0,4.0297127E0,1.1866543E1,4.1002393E0,7.385879E0,3.7057798E0,3.4668622E0,3.1364973E0,1.1510335E1,1.7112349E1,7.7458124E0,1.1527292E0,1.4882798E0,2.5937777E0,1.5346434E0,1.1103306E0,2.3853445E0,1.6443682E0,1.4952483E0,2.6049907E0,1.0310364E0,2.6747434E0,2.4507642E0,1.0160981E0,1.7435732E0,1.3929241E0,9.09618E0,2.4141548E0,9.473932E0,7.6384163E0,1.1573993E0,1.5173442E0],"tree_param":{"num_deleted":"0","num_feature":"6","num_nodes":"49","size_leaf_vector":"1"}},{"base_weights":[2.5029194E-3,3.4259045E-1,-3.082879E-1,4.6877193E-1,-3.060322E-1,7.524273E-2,-4.7048405E-1,6.149497E-1,2.611253E-1,-1.4322276E-1,7.455451E-2,-1.440021E-1,3.5087955E-1,-2.1354473E-1,-1.5851766E-1,2.6109195E-1,2.1110989E-1,-1.1205681E-1,3.5459015E-1,6.0097566E-3,3.0033475E-2,-1.2978324E-1,9.144593E-2,-1.2695523E-1,5.8937275E-1,-1.3363731E-1,1.4844999E-1,1.8611942E-1,-1.14247255E-1,-2.0397149E-1,5.148806E-1,-1.2867802E-1,1.7404787E-1,-9.364055E-2,4.1330975E-2,6.3109286E-2,2.1274899E-1,-9.437395E-2,1.3032056E-1,3.7651174E-2,-1.3218457E-1,-4.415251E-2,1.8722306E-1,5.814907E-2,-1.22962415E-1],"categories":[],"categories_nodes":[],"categories_segments":[],"categories_sizes":[],"default_left":[0,0,0,0,0,0,0,0,0,0,0,0,0,0,0,0,0,0,0,0,0,0,0,0,0,0,0,0,0,0,0,0,0,0,0,0,0,0,0,0,0,0,0,0,0],"id":19,"left_children":[1,3,5,7,9,11,13,15,17,-1,19,21,23,25,-1,27,-1,-1,29,-1,-1,-1,31,33,35,-1,37,-1,-1,39,41,43,-1,-1,-1,-1,-1,-1,-1,-1,-1,-1,-1,-1,-1],"loss_changes":[1.0251337E1,3.9335108E0,3.1881495E0,1.0281048E0,5.669435E-1,1.0129192E0,4.1917753E-1,5.148554E-1,1.1952395E0,0E0,2.7242415E-3,6.904739E-1,9.120049E-1,7.5912E-1,0E0,1.6317233E0,0E0,0E0,1.5491858E0,0E0,0E0,0E0,7.309669E-1,2.0323636E-1,8.134997E-2,0E0,6.627479E-1,0E0,0E0,3.915738E-1,1.0184526E0,5.3513056E-1,0E0,0E0,0E0,0E0,0E0,0E0,0E0,0E0,0E0,0E0,0E0,0E0,0E0],"parents":[2147483647,0,0,1,1,2,2,3,3,4,4,5,5,6,6,7,7,8,8,10,10,11,11,12,12,13,13,15,15,18,18,22,22,23,23,24,24,26,26,29,29,30,30,31,31],"right_children":[2,4,6,8,10,12,14,16,18,-1,20,22,24,26,-1,28,-1,-1,30,-1,-1,-1,32,34,36,-1,38,-1,-1,40,42,44,-1,-1,-1,-1,-1,-1,-1,-1,-1,-1,-1,-1,-1],"split_conditions":[2E0,8E0,2E0,5E0,7E0,6E0,3E0,3E0,2E0,-1.4322276E-1,9E0,6E0,5E0,7E0,-1.5851766E-1,1E0,2.1110989E-1,-1.1205681E-1,2E0,6.0097566E-3,3.0033475E-2,-1.2978324E-1,8E0,6E0,6E0,-1.3363731E-1,6E0,1.8611942E-1,-1.14247255E-1,4E0,4E0,4E0,1.7404787E-1,-9.364055E-2,4.1330975E-2,6.3109286E-2,2.1274899E-1,-9.437395E-2,1.3032056E-1,3.7651174E-2,-1.3218457E-1,-4.415251E-2,1.8722306E-1,5.814907E-2,-1.22962415E-1],"split_indices":[0,5,5,5,3,3,5,4,3,0,5,2,4,4,0,0,0,0,2,0,0,0,4,2,4,0,3,0,0,1,4,1,0,0,0,0,0,0,0,0,0,0,0,0,0],"split_type":[0,0,0,0,0,0,0,0,0,0,0,0,0,0,0,0,0,0,0,0,0,0,0,0,0,0,0,0,0,0,0,0,0,0,0,0,0,0,0,0,0,0,0,0,0],"sum_hessian":[9.498956E1,4.5308136E1,4.9681427E1,3.816156E1,7.146577E0,1.4925217E1,3.4756214E1,2.1244484E1,1.6917076E1,4.7522507E0,2.3943262E0,8.578968E0,6.346248E0,7.254691E0,2.7501522E1,5.050269E0,1.6194214E1,1.7869402E0,1.51301365E1,1.3334516E0,1.0608745E0,3.478132E0,5.1008363E0,2.2686186E0,4.0776296E0,4.2812996E0,2.9733913E0,3.2593837E0,1.7908856E0,3.31297E0,1.1817166E1,4.0247355E0,1.0761007E0,1.2294824E0,1.0391363E0,1.6411742E0,2.4364552E0,1.0969813E0,1.87641E0,1.5811749E0,1.7317951E0,1.6238683E0,1.0193298E1,2.0193784E0,2.0053573E0],"tree_param":{"num_deleted":"0","num_feature":"6","num_nodes":"45","size_leaf_vector":"1"}},{"base_weights":[-8.891062E-3,1.7904416E-1,-3.2803145E-1,4.668473E-2,1.823843E-1,-4.7177935E-1,7.248199E-2,2.0857096E-1,-2.744555E-1,-1.5732808E-1,-2.7895367E-1,3.6312962E-1,-1.345238E-1,-1.1505583E-2,5.1541656E-1,-4.2046118E-1,2.693642E-1,-3.4396905E-2,-1.336424E-1,-2.3933514E-3,1.4865334E-1,-1.24150455E-1,1.1096228E-1,-1.3678104E-1,1.5515159E-1,1.0096391E-1,1.8016198E-1,-1.4907035E-1,-1.4464037E-1,-1.5708402E-2,1.3401093E-1,5.262417E-2,-9.590886E-2,1.1194942E-1,-9.977551E-2,-1.1832495E-1,8.425216E-2,1.3681611E-1,-1.0098944E-1,-9.5772415E-2,1.3455317E-2],"categories":[],"categories_nodes":[],"categories_segments":[],"categories_sizes":[],"default_left":[0,0,0,0,0,0,0,0,0,0,0,0,0,0,0,0,0,0,0,0,0,0,0,0,0,0,0,0,0,0,0,0,0,0,0,0,0,0,0,0,0],"id":20,"left_children":[1,3,5,7,-1,9,11,13,15,-1,17,19,21,23,25,27,29,31,-1,-1,-1,-1,33,-1,35,37,-1,-1,39,-1,-1,-1,-1,-1,-1,-1,-1,-1,-1,-1,-1],"loss_changes":[5.818358E0,3.4393985E0,2.1036017E0,2.5403616E0,0E0,1.2358332E-1,6.7217934E-1,2.1887221E0,1.4185746E0,0E0,3.038677E-1,2.28948E-1,5.1083314E-1,1.5373757E0,4.1642523E-1,2.0960736E-1,2.5668886E-1,3.109998E-1,0E0,0E0,0E0,0E0,6.355095E-1,0E0,1.1570528E0,6.983298E-1,0E0,0E0,1.5683866E-1,0E0,0E0,0E0,0E0,0E0,0E0,0E0,0E0,0E0,0E0,0E0,0E0],"parents":[2147483647,0,0,1,1,2,2,3,3,5,5,6,6,7,7,8,8,10,10,11,11,12,12,13,13,14,14,15,15,16,16,17,17,22,22,24,24,25,25,28,28],"right_children":[2,4,6,8,-1,10,12,14,16,-1,18,20,22,24,26,28,30,32,-1,-1,-1,-1,34,-1,36,38,-1,-1,40,-1,-1,-1,-1,-1,-1,-1,-1,-1,-1,-1,-1],"split_conditions":[5E0,5E0,5E0,3E0,1.823843E-1,8E0,7E0,2E0,9E0,-1.5732808E-1,9E0,3E0,5E0,5E0,3E0,7E0,3E0,3E0,-1.336424E-1,-2.3933514E-3,1.4865334E-1,-1.24150455E-1,7E0,-1.3678104E-1,2E0,1E0,1.8016198E-1,-1.4907035E-1,4E0,-1.5708402E-2,1.3401093E-1,5.262417E-2,-9.590886E-2,1.1194942E-1,-9.977551E-2,-1.1832495E-1,8.425216E-2,1.3681611E-1,-1.0098944E-1,-9.5772415E-2,1.3455317E-2],"split_indices":[3,0,0,0,0,2,3,0,2,0,2,2,2,5,2,2,5,0,0,0,0,0,2,0,2,3,0,0,0,0,0,0,0,0,0,0,0,0,0,0,0],"split_type":[0,0,0,0,0,0,0,0,0,0,0,0,0,0,0,0,0,0,0,0,0,0,0,0,0,0,0,0,0,0,0,0,0,0,0,0,0,0,0,0,0],"sum_hessian":[9.502943E1,6.0085365E1,3.494406E1,4.676313E1,1.3322236E1,2.5583849E1,9.360211E0,3.1323526E1,1.5439605E1,1.8745916E1,6.837931E0,3.5797887E0,5.7804227E0,1.880131E1,1.2522216E1,1.2350546E1,3.089059E0,3.258695E0,3.5792363E0,1.1883112E0,2.3914776E0,2.3831391E0,3.3972836E0,4.654145E0,1.4147165E1,2.5061655E0,1.001605E1,9.042894E0,3.3076515E0,1.3480979E0,1.7409613E0,2.0997121E0,1.1589826E0,2.234841E0,1.1624426E0,2.2353182E0,1.1911847E1,1.3602223E0,1.1459432E0,1.3650975E0,1.942554E0],"tree_param":{"num_deleted":"0","num_feature":"6","num_nodes":"41","size_leaf_vector":"1"}},{"base_weights":[-1.2863651E-3,2.2573519E-1,-2.0483597E-1,7.649297E-2,3.8564217E-1,-3.822513E-1,4.9230054E-2,-1.08987324E-1,3.547955E-1,5.0563097E-1,1.4760317E-1,-4.760177E-1,-1.4006808E-1,2.6744887E-1,-1.4226118E-1,-3.2474297E-1,6.3753255E-2,1.6385807E-1,1.1020473E-1,1.638901E-1,6.0538703E-1,-9.484082E-2,2.6229236E-1,-1.5583302E-1,-3.0390596E-1,4.0464913E-3,-1.2521064E-1,2.3350367E-2,4.3835026E-1,1.9962125E-2,-1.4264059E-1,-2.1454191E-1,3.14915E-1,-1.0554691E-1,3.7631378E-1,1.3435411E-1,-6.1177827E-2,2.4396066E-1,2.0131022E-1,-2.8312674E-2,3.6601958E-1,-4.376005E-2,-1.3657092E-1,1.8615748E-1,-1.1849385E-1,3.0332395E-1,-1.301808E-1,4.9729463E-2,4.9214217E-1,-1.1860061E-1,2.4146102E-2,1.6865373E-1,-9.3711615E-2,1.4792633E-1,8.060236E-3,9.123775E-2,2.2173675E-2,-3.2751266E-2,1.4569014E-1,7.117918E-2,-9.464824E-2,-9.0847805E-2,1.0965947E-1,-2.3579566E-2,1.3450724E-1,1.6641027E-1,5.58841E-2],"categories":[],"categories_nodes":[],"categories_segments":[],"categories_sizes":[],"default_left":[0,0,0,0,0,0,0,0,0,0,0,0,0,0,0,0,0,0,0,0,0,0,0,0,0,0,0,0,0,0,0,0,0,0,0,0,0,0,0,0,0,0,0,0,0,0,0,0,0,0,0,0,0,0,0,0,0,0,0,0,0,0,0,0,0,0,0],"id":21,"left_children":[1,3,5,7,9,11,13,15,17,19,21,23,25,27,-1,29,31,-1,33,35,37,-1,39,-1,41,43,-1,45,47,-1,-1,49,51,-1,53,-1,-1,55,-1,-1,57,59,-1,61,-1,63,-1,-1,65,-1,-1,-1,-1,-1,-1,-1,-1,-1,-1,-1,-1,-1,-1,-1,-1,-1,-1],"loss_changes":[4.67563E0,1.1120954E0,2.4233794E0,1.3802832E0,5.778761E-1,6.4921904E-1,2.73344E0,6.304772E-1,4.3740988E-1,4.0453243E-1,5.6524223E-1,8.878708E-3,4.0994665E-1,6.883223E-1,0E0,4.7035652E-1,7.6109594E-1,0E0,8.6013734E-1,5.832598E-1,9.8869324E-2,0E0,3.2374454E-1,0E0,2.519061E-1,6.339852E-1,0E0,1.1497204E0,6.2015533E-2,0E0,0E0,3.1460539E-1,1.047389E0,0E0,1.5972966E-1,0E0,0E0,1.1000708E-2,0E0,0E0,4.0888155E-1,3.5325858E-1,0E0,6.3480216E-1,0E0,3.410517E-1,0E0,0E0,4.345262E-2,0E0,0E0,0E0,0E0,0E0,0E0,0E0,0E0,0E0,0E0,0E0,0E0,0E0,0E0,0E0,0E0,0E0,0E0],"parents":[2147483647,0,0,1,1,2,2,3,3,4,4,5,5,6,6,7,7,8,8,9,9,10,10,11,11,12,12,13,13,15,15,16,16,18,18,19,19,20,20,22,22,24,24,25,25,27,27,28,28,31,31,32,32,34,34,37,37,40,40,41,41,43,43,45,45,48,48],"right_children":[2,4,6,8,10,12,14,16,18,20,22,24,26,28,-1,30,32,-1,34,36,38,-1,40,-1,42,44,-1,46,48,-1,-1,50,52,-1,54,-1,-1,56,-1,-1,58,60,-1,62,-1,64,-1,-1,66,-1,-1,-1,-1,-1,-1,-1,-1,-1,-1,-1,-1,-1,-1,-1,-1,-1,-1],"split_conditions":[4E0,6E0,4E0,4E0,2E0,8E0,5E0,5E0,5E0,5E0,2E0,6E0,8E0,5E0,-1.4226118E-1,1E0,2E0,1.6385807E-1,5E0,8E0,4E0,-9.484082E-2,7E0,-1.5583302E-1,4E0,9E0,-1.2521064E-1,7E0,2E0,1.9962125E-2,-1.4264059E-1,6E0,3E0,-1.0554691E-1,1E0,1.3435411E-1,-6.1177827E-2,8E0,2.0131022E-1,-2.8312674E-2,1E0,7E0,-1.3657092E-1,2E0,-1.1849385E-1,1E0,-1.301808E-1,4.9729463E-2,9E0,-1.1860061E-1,2.4146102E-2,1.6865373E-1,-9.3711615E-2,1.4792633E-1,8.060236E-3,9.123775E-2,2.2173675E-2,-3.2751266E-2,1.4569014E-1,7.117918E-2,-9.464824E-2,-9.0847805E-2,1.0965947E-1,-2.3579566E-2,1.3450724E-1,1.6641027E-1,5.58841E-2],"split_indices":[2,4,0,0,2,3,0,3,0,5,0,3,2,1,0,0,0,0,3,4,1,0,4,0,4,3,0,2,4,0,0,5,0,0,2,0,0,4,0,0,5,2,0,0,0,5,0,0,2,0,0,0,0,0,0,0,0,0,0,0,0,0,0,0,0,0,0],"split_type":[0,0,0,0,0,0,0,0,0,0,0,0,0,0,0,0,0,0,0,0,0,0,0,0,0,0,0,0,0,0,0,0,0,0,0,0,0,0,0,0,0,0,0,0,0,0,0,0,0,0,0,0,0,0,0,0,0,0,0,0,0,0,0,0,0,0,0],"sum_hessian":[9.918128E1,4.6835754E1,5.234553E1,2.4990406E1,2.1845346E1,3.0525154E1,2.1820375E1,1.5361087E1,9.62932E0,1.37767315E1,8.068615E0,2.130928E1,9.215875E0,1.5745253E1,6.0751224E0,6.43888E0,8.922207E0,4.7103043E0,4.919016E0,3.7100112E0,1.0066721E1,1.2515568E0,6.8170586E0,1.5404501E1,5.9047794E0,6.712672E0,2.5032022E0,6.95214E0,8.793113E0,1.9458895E0,4.4929905E0,4.301647E0,4.6205597E0,1.680015E0,3.2390008E0,1.9708873E0,1.739124E0,2.2723444E0,7.7943764E0,1.5561984E0,5.26086E0,2.645749E0,3.25903E0,4.975417E0,1.7372547E0,4.5209036E0,2.4312363E0,2.121946E0,6.6711664E0,2.4563873E0,1.84526E0,3.3886242E0,1.2319355E0,2.119632E0,1.1193689E0,1.0960739E0,1.1762704E0,1.0755079E0,4.1853523E0,1.363002E0,1.2827471E0,1.1505952E0,3.8248222E0,1.3703562E0,3.1505475E0,4.862965E0,1.8082013E0],"tree_param":{"num_deleted":"0","num_feature":"6","num_nodes":"67","size_leaf_vector":"1"}},{"base_weights":[7.59834E-3,3.6150572E-1,-1.21612184E-1,4.8322618E-1,1.03429705E-1,1.822106E-3,-4.8335594E-1,1.016096E-1,1.611189E-1,-1.1799871E-1,3.0134752E-1,-2.2797559E-1,4.425482E-1,-1.5677194E-1,-2.0004246E-1,-9.1357134E-2,1.337812E-1,8.225293E-2,1.8546346E-1,-4.617167E-1,-9.9832214E-2,5.371202E-1,-1.08840406E-1,3.2908075E-2,-1.0706823E-1,2.9947034E-1,-1.014729E-1,1.5362258E-2,-1.564866E-1,3.8172838E-1,-2.1136992E-1,1.9333173E-1,1.8286736E-1,-2.9850425E-2,1.608392E-1,-3.5253733E-2,1.8211089E-1,-1.0077513E-1,8.580218E-2,1.4591002E-1,-1.02434225E-1],"categories":[],"categories_nodes":[],"categories_segments":[],"categories_sizes":[],"default_left":[0,0,0,0,0,0,0,0,0,0,0,0,0,0,0,0,0,0,0,0,0,0,0,0,0,0,0,0,0,0,0,0,0,0,0,0,0,0,0,0,0],"id":22,"left_children":[1,3,5,7,9,11,13,15,-1,-1,17,19,21,-1,23,-1,-1,25,-1,27,29,31,-1,-1,-1,33,-1,-1,-1,35,37,39,-1,-1,-1,-1,-1,-1,-1,-1,-1],"loss_changes":[4.590689E0,7.932751E-1,3.2865477E0,3.1459188E-1,1.0894661E0,5.758284E0,1.03505135E-1,6.189357E-1,0E0,0E0,4.787199E-1,1.0734086E0,1.6788411E0,0E0,2.284739E-1,0E0,0E0,6.1857396E-1,0E0,4.24901E-1,1.4458927E0,3.2641745E-1,0E0,0E0,0E0,4.5601934E-1,0E0,0E0,0E0,6.490808E-1,1.4143537E0,8.821024E-1,0E0,0E0,0E0,0E0,0E0,0E0,0E0,0E0,0E0],"parents":[2147483647,0,0,1,1,2,2,3,3,4,4,5,5,6,6,7,7,10,10,11,11,12,12,14,14,17,17,19,19,20,20,21,21,25,25,29,29,30,30,31,31],"right_children":[2,4,6,8,10,12,14,16,-1,-1,18,20,22,-1,24,-1,-1,26,-1,28,30,32,-1,-1,-1,34,-1,-1,-1,36,38,40,-1,-1,-1,-1,-1,-1,-1,-1,-1],"split_conditions":[2E0,4E0,4E0,1E0,4E0,3E0,9E0,9E0,1.611189E-1,-1.1799871E-1,8E0,5E0,8E0,-1.5677194E-1,5E0,-9.1357134E-2,1.337812E-1,5E0,1.8546346E-1,3E0,3E0,2E0,-1.08840406E-1,3.2908075E-2,-1.0706823E-1,7E0,-1.014729E-1,1.5362258E-2,-1.564866E-1,4E0,9E0,6E0,1.8286736E-1,-2.9850425E-2,1.608392E-1,-3.5253733E-2,1.8211089E-1,-1.0077513E-1,8.580218E-2,1.4591002E-1,-1.02434225E-1],"split_indices":[4,0,0,0,2,0,5,2,0,0,3,5,4,0,4,0,0,0,0,4,1,2,0,0,0,2,0,0,0,3,1,4,0,0,0,0,0,0,0,0,0],"split_type":[0,0,0,0,0,0,0,0,0,0,0,0,0,0,0,0,0,0,0,0,0,0,0,0,0,0,0,0,0,0,0,0,0,0,0,0,0,0,0,0,0],"sum_hessian":[9.842859E1,2.5844032E1,7.258456E1,1.6968494E1,8.875539E0,5.4860134E1,1.7724424E1,2.454855E0,1.4513639E1,2.2474E0,6.6281385E0,3.6376102E1,1.848403E1,1.4827455E1,2.89697E0,1.1793795E0,1.2754755E0,4.663299E0,1.9648395E0,1.1959018E1,2.4417086E1,1.6839617E1,1.6444138E0,1.0749375E0,1.8220326E0,3.2646701E0,1.3986288E0,1.2658325E0,1.0693186E1,4.1363044E0,2.0280783E1,3.5691936E0,1.3270423E1,1.4312948E0,1.8333755E0,1.435014E0,2.7012904E0,1.6478947E1,3.8018353E0,2.3642294E0,1.204964E0],"tree_param":{"num_deleted":"0","num_feature":"6","num_nodes":"41","size_leaf_vector":"1"}},{"base_weights":[2.6747626E-3,2.9136664E-1,-2.7836362E-1,4.929313E-1,-4.0997557E-2,-7.0396597E-3,-1.5450981E-1,1.9669366E-1,3.0236953E-1,-1.3871512E-1,1.0855328E-1,-1.3894297E-1,4.367539E-1,-1.1375862E-1,4.4152704E-1,-1.19602844E-1,2.4694239E-1,-2.6457876E-1,3.2124385E-1,-6.1682123E-3,2.0169356E-1,-3.3855345E-2,5.4795295E-1,5.071243E-1,-1.5885735E-1,-4.1881266E-1,3.5296697E-2,-9.0508536E-2,1.8842754E-1,3.3681013E-2,1.800383E-1,2.1447487E-2,1.7513464E-1,-1.2800469E-1,7.677153E-2,-2.2643946E-2,-1.505713E-1,8.139411E-2,-1.07742764E-1],"categories":[],"categories_nodes":[],"categories_segments":[],"categories_sizes":[],"default_left":[0,0,0,0,0,0,0,0,0,0,0,0,0,0,0,0,0,0,0,0,0,0,0,0,0,0,0,0,0,0,0,0,0,0,0,0,0,0,0],"id":23,"left_children":[1,3,5,7,9,11,-1,-1,13,-1,15,17,19,-1,21,-1,23,25,27,-1,-1,-1,29,31,33,35,37,-1,-1,-1,-1,-1,-1,-1,-1,-1,-1,-1,-1],"loss_changes":[6.9721828E0,2.859743E0,2.7928572E0,6.22242E-1,1.1167401E0,1.3077222E0,0E0,0E0,1.4993914E0,0E0,1.0321162E0,1.0783191E0,5.656186E-1,0E0,7.771845E-1,0E0,1.2490811E0,6.643575E-1,9.801243E-1,0E0,0E0,0E0,1.6772652E-1,1.9143307E-1,6.7407715E-1,2.2891665E-1,6.2736845E-1,0E0,0E0,0E0,0E0,0E0,0E0,0E0,0E0,0E0,0E0,0E0,0E0],"parents":[2147483647,0,0,1,1,2,2,3,3,4,4,5,5,8,8,10,10,11,11,12,12,14,14,16,16,17,17,18,18,22,22,23,23,24,24,25,25,26,26],"right_children":[2,4,6,8,10,12,-1,-1,14,-1,16,18,20,-1,22,-1,24,26,28,-1,-1,-1,30,32,34,36,38,-1,-1,-1,-1,-1,-1,-1,-1,-1,-1,-1,-1],"split_conditions":[2E0,6E0,3E0,1E0,4E0,8E0,-1.5450981E-1,1.9669366E-1,3E0,-1.3871512E-1,3E0,9E0,5E0,-1.1375862E-1,1E0,-1.19602844E-1,1E0,7E0,3E0,-6.1682123E-3,2.0169356E-1,-3.3855345E-2,1E0,3E0,7E0,2E0,2E0,-9.0508536E-2,1.8842754E-1,3.3681013E-2,1.800383E-1,2.1447487E-2,1.7513464E-1,-1.2800469E-1,7.677153E-2,-2.2643946E-2,-1.505713E-1,8.139411E-2,-1.07742764E-1],"split_indices":[0,5,5,0,4,4,0,0,4,0,3,2,3,0,2,0,0,3,4,0,0,0,3,2,2,4,5,0,0,0,0,0,0,0,0,0,0,0,0],"split_type":[0,0,0,0,0,0,0,0,0,0,0,0,0,0,0,0,0,0,0,0,0,0,0,0,0,0,0,0,0,0,0,0,0,0,0,0,0,0,0],"sum_hessian":[8.3935036E1,4.1385616E1,4.254942E1,2.5461315E1,1.5924303E1,2.0303114E1,2.2246304E1,1.2417685E1,1.3043631E1,3.6232722E0,1.2301031E1,1.618081E1,4.1223035E0,1.9191399E0,1.1124491E1,2.2335813E0,1.006745E1,1.304457E1,3.1362412E0,1.71177E0,2.4105337E0,1.7819331E0,9.342558E0,5.982213E0,4.085237E0,8.352194E0,4.6923766E0,1.040563E0,2.095678E0,1.33623E0,8.006328E0,1.1843532E0,4.7978597E0,2.4648612E0,1.6203759E0,1.9993438E0,6.3528495E0,3.1310387E0,1.5613377E0],"tree_param":{"num_deleted":"0","num_feature":"6","num_nodes":"39","size_leaf_vector":"1"}},{"base_weights":[-1.1348245E-2,1.6002093E-1,-3.092918E-1,4.0265806E-2,1.6952266E-1,-4.5026892E-1,5.5462636E-2,1.7904496E-1,-2.4653853E-1,-1.5259422E-1,-2.547157E-1,3.295282E-1,-1.4052294E-1,-1.695612E-2,4.7246835E-1,-3.9612326E-1,2.4231227E-1,-3.0599887E-2,-1.2607852E-1,-7.874385E-4,1.3509691E-1,-1.20439105E-1,7.598312E-2,-1.2922779E-1,1.20372735E-1,9.065399E-2,1.6655834E-1,-1.4298409E-1,-1.2756953E-1,-1.40404785E-2,1.1922301E-1,5.168073E-2,-9.008181E-2,-4.040568E-2,6.515273E-2,-1.1132318E-1,6.749009E-2,1.23226374E-1,-9.336425E-2,1.1813976E-2,-8.680695E-2],"categories":[],"categories_nodes":[],"categories_segments":[],"categories_sizes":[],"default_left":[0,0,0,0,0,0,0,0,0,0,0,0,0,0,0,0,0,0,0,0,0,0,0,0,0,0,0,0,0,0,0,0,0,0,0,0,0,0,0,0,0],"id":24,"left_children":[1,3,5,7,-1,9,11,13,15,-1,17,19,21,23,25,27,29,31,-1,-1,-1,-1,33,-1,35,37,-1,-1,39,-1,-1,-1,-1,-1,-1,-1,-1,-1,-1,-1,-1],"loss_changes":[4.316842E0,2.5829906E0,1.6118245E0,1.7372322E0,0E0,1.2578058E-1,5.561841E-1,1.6899619E0,1.1410655E0,0E0,2.5223592E-1,1.7197752E-1,3.8279656E-1,1.1030895E0,3.2070065E-1,1.8395138E-1,1.9657318E-1,2.7680376E-1,0E0,0E0,0E0,0E0,1.5563402E-1,0E0,8.376106E-1,5.506688E-1,0E0,0E0,1.18802115E-1,0E0,0E0,0E0,0E0,0E0,0E0,0E0,0E0,0E0,0E0,0E0,0E0],"parents":[2147483647,0,0,1,1,2,2,3,3,5,5,6,6,7,7,8,8,10,10,11,11,12,12,13,13,14,14,15,15,16,16,17,17,22,22,24,24,25,25,28,28],"right_children":[2,4,6,8,-1,10,12,14,16,-1,18,20,22,24,26,28,30,32,-1,-1,-1,-1,34,-1,36,38,-1,-1,40,-1,-1,-1,-1,-1,-1,-1,-1,-1,-1,-1,-1],"split_conditions":[5E0,5E0,5E0,3E0,1.6952266E-1,8E0,7E0,2E0,9E0,-1.5259422E-1,9E0,3E0,4E0,5E0,3E0,7E0,3E0,7E0,-1.2607852E-1,-7.874385E-4,1.3509691E-1,-1.20439105E-1,5E0,-1.2922779E-1,2E0,1E0,1.6655834E-1,-1.4298409E-1,4E0,-1.40404785E-2,1.1922301E-1,5.168073E-2,-9.008181E-2,-4.040568E-2,6.515273E-2,-1.1132318E-1,6.749009E-2,1.23226374E-1,-9.336425E-2,1.1813976E-2,-8.680695E-2],"split_indices":[3,0,0,0,0,2,3,0,2,0,2,2,5,5,2,2,5,3,0,0,0,0,4,0,2,3,0,0,1,0,0,0,0,0,0,0,0,0,0,0,0],"split_type":[0,0,0,0,0,0,0,0,0,0,0,0,0,0,0,0,0,0,0,0,0,0,0,0,0,0,0,0,0,0,0,0,0,0,0,0,0,0,0,0,0],"sum_hessian":[8.257789E1,5.271852E1,2.985937E1,4.153734E1,1.1181181E1,2.1366716E1,8.492651E0,2.8245571E1,1.3291769E1,1.522156E1,6.145158E0,3.256868E0,5.2357836E0,1.7498877E1,1.0746695E1,1.0322764E1,2.9690046E0,3.1141162E0,3.0310414E0,1.1294516E0,2.1274164E0,1.9868628E0,3.2489207E0,3.8278854E0,1.3670991E1,2.2870178E0,8.459677E0,7.3462257E0,2.9765387E0,1.2804306E0,1.6885741E0,1.9833086E0,1.1308075E0,1.3221989E0,1.9267217E0,1.9519085E0,1.1719082E1,1.2607101E0,1.0263076E0,1.8372538E0,1.1392847E0],"tree_param":{"num_deleted":"0","num_feature":"6","num_nodes":"41","size_leaf_vector":"1"}},{"base_weights":[-2.8181698E-3,2.0724085E-1,-1.9572988E-1,-2.0940774E-3,2.9464766E-1,-3.620472E-1,3.481943E-2,-3.102931E-1,2.2401649E-1,-1.05272874E-1,3.3509433E-1,-4.5572305E-1,-1.3275114E-1,2.2109054E-1,-1.3532777E-1,-1.2647434E-1,-6.944047E-3,3.971591E-1,-1.6543336E-1,-1.00225806E-1,5.7102602E-2,3.931214E-1,8.480696E-2,-1.5079994E-1,-2.7968732E-1,2.5400391E-3,-1.1498589E-1,-1.1941806E-2,3.9013112E-1,1.550321E-1,4.41563E-2,-9.583039E-2,2.676686E-2,1.5699238E-1,1.336594E-1,-9.723298E-2,1.222867E-1,-3.5738718E-2,-1.2859972E-1,-1.1485226E-1,2.5721478E-1,2.3317178E-1,-1.2282802E-1,4.562535E-2,4.3795496E-1,-2.609389E-2,1.152207E-1,5.1802207E-2,-6.96455E-2,6.5399215E-2,-8.816501E-2,-7.5148244E-4,1.308742E-1,-4.5843463E-2,1.1063341E-1,4.4001065E-2,1.5484515E-1],"categories":[],"categories_nodes":[],"categories_segments":[],"categories_sizes":[],"default_left":[0,0,0,0,0,0,0,0,0,0,0,0,0,0,0,0,0,0,0,0,0,0,0,0,0,0,0,0,0,0,0,0,0,0,0,0,0,0,0,0,0,0,0,0,0,0,0,0,0,0,0,0,0,0,0,0,0],"id":25,"left_children":[1,3,5,7,9,11,13,15,17,19,21,23,25,27,-1,-1,-1,29,31,-1,-1,33,35,-1,37,39,-1,41,43,-1,-1,-1,-1,45,-1,47,-1,49,-1,-1,51,53,-1,-1,55,-1,-1,-1,-1,-1,-1,-1,-1,-1,-1,-1,-1],"loss_changes":[3.5870702E0,7.7611136E-1,1.7816495E0,1.0086884E0,5.1901865E-1,5.170655E-1,1.9322826E0,1.8589282E-1,6.2905365E-1,3.0085555E-1,3.6457658E-1,1.376915E-2,3.131491E-1,6.076348E-1,0E0,0E0,0E0,1.05653405E-1,1.5702122E-1,0E0,0E0,2.0190239E-1,4.175898E-1,0E0,2.0952684E-1,7.8293973E-1,0E0,8.170012E-1,3.472948E-2,0E0,0E0,0E0,0E0,3.3999625E-1,0E0,2.1924773E-1,0E0,2.8917024E-1,0E0,0E0,2.241529E-1,3.2947457E-1,0E0,0E0,8.100796E-2,0E0,0E0,0E0,0E0,0E0,0E0,0E0,0E0,0E0,0E0,0E0,0E0],"parents":[2147483647,0,0,1,1,2,2,3,3,4,4,5,5,6,6,7,7,8,8,9,9,10,10,11,11,12,12,13,13,17,17,18,18,21,21,22,22,24,24,25,25,27,27,28,28,33,33,35,35,37,37,40,40,41,41,44,44],"right_children":[2,4,6,8,10,12,14,16,18,20,22,24,26,28,-1,-1,-1,30,32,-1,-1,34,36,-1,38,40,-1,42,44,-1,-1,-1,-1,46,-1,48,-1,50,-1,-1,52,54,-1,-1,56,-1,-1,-1,-1,-1,-1,-1,-1,-1,-1,-1,-1],"split_conditions":[4E0,2E0,4E0,6E0,1E0,8E0,5E0,7E0,2E0,7E0,3E0,6E0,3E0,5E0,-1.3532777E-1,-1.2647434E-1,-6.944047E-3,1E0,5E0,-1.00225806E-1,5.7102602E-2,3E0,7E0,-1.5079994E-1,4E0,2E0,-1.1498589E-1,7E0,2E0,1.550321E-1,4.41563E-2,-9.583039E-2,2.676686E-2,5E0,1.336594E-1,4E0,1.222867E-1,7E0,-1.2859972E-1,-1.1485226E-1,5E0,3E0,-1.2282802E-1,4.562535E-2,4E0,-2.609389E-2,1.152207E-1,5.1802207E-2,-6.96455E-2,6.5399215E-2,-8.816501E-2,-7.5148244E-4,1.308742E-1,-4.5843463E-2,1.1063341E-1,4.4001065E-2,1.5484515E-1],"split_indices":[2,0,0,5,3,3,0,4,2,4,2,3,0,1,0,0,0,0,3,0,0,4,3,0,4,0,0,2,4,0,0,0,0,3,0,5,0,2,0,0,5,4,0,0,3,0,0,0,0,0,0,0,0,0,0,0,0],"split_type":[0,0,0,0,0,0,0,0,0,0,0,0,0,0,0,0,0,0,0,0,0,0,0,0,0,0,0,0,0,0,0,0,0,0,0,0,0,0,0,0,0,0,0,0,0,0,0,0,0,0,0,0,0,0,0,0,0],"sum_hessian":[8.65187E1,4.138301E1,4.5135693E1,1.2477077E1,2.8905933E1,2.5889061E1,1.924663E1,5.1225286E0,7.3545475E0,2.5077322E0,2.6398201E1,1.767904E1,8.210022E0,1.4307098E1,4.939532E0,3.3543305E0,1.768198E0,5.0774198E0,2.2771275E0,1.3402255E0,1.1675066E0,2.096659E1,5.431611E0,1.2492252E1,5.1867876E0,5.9739165E0,2.2361054E0,6.4057503E0,7.901348E0,2.7122455E0,2.3651745E0,1.2604842E0,1.0166433E0,4.5340824E0,1.6432508E1,3.919915E0,1.5116961E0,2.4366775E0,2.7501104E0,2.1767476E0,3.7971687E0,4.2180343E0,2.1877165E0,2.0211291E0,5.8802185E0,2.483143E0,2.0509393E0,1.2131504E0,2.7067645E0,1.3072624E0,1.129415E0,1.9517722E0,1.8453968E0,1.0636457E0,3.1543884E0,1.8530691E0,4.0271497E0],"tree_param":{"num_deleted":"0","num_feature":"6","num_nodes":"57","size_leaf_vector":"1"}},{"base_weights":[1.1091097E-2,1.23947516E-1,-3.4758306E-1,2.305072E-1,-1.7603315E-1,-1.4275363E-1,-2.535761E-1,-2.6048884E-1,3.462373E-1,2.4232343E-1,-3.932616E-1,9.289945E-2,-3.4135914E-1,-3.8190776E-1,1.1564896E-1,1.7672879E-1,5.306184E-1,-1.5865463E-1,1.3825089E-1,-1.45119E-1,-1.0859571E-1,-2.5092823E-2,8.072956E-2,6.2484E-3,-3.8754675E-1,1.779838E-2,-1.4334624E-1,-9.159622E-2,1.3609567E-1,4.3799546E-1,-3.8109955E-1,1.7273316E-1,2.4411611E-1,-8.8286854E-2,1.424878E-2,-1.1051401E-1,7.7455126E-2,-1.4151303E-1,-2.2057036E-1,5.9722293E-2,1.9888063E-1,-1.4099117E-1,2.8813433E-2,-2.5691742E-2,1.27667E-1,2.229902E-2,-1.1816786E-1],"categories":[],"categories_nodes":[],"categories_segments":[],"categories_sizes":[],"default_left":[0,0,0,0,0,0,0,0,0,0,0,0,0,0,0,0,0,0,0,0,0,0,0,0,0,0,0,0,0,0,0,0,0,0,0,0,0,0,0,0,0,0,0,0,0,0,0],"id":26,"left_children":[1,3,5,7,9,-1,11,13,15,17,19,21,23,25,27,29,31,33,-1,-1,35,-1,-1,-1,37,-1,-1,-1,-1,39,41,-1,43,-1,-1,-1,-1,-1,45,-1,-1,-1,-1,-1,-1,-1,-1],"loss_changes":[3.5869293E0,2.1928918E0,1.3515949E-1,2.937944E0,1.7507057E0,0E0,4.6920186E-1,5.068107E-1,1.187211E0,6.72812E-1,2.6606643E-1,1.374082E-1,2.0363545E-1,3.6227477E-1,5.994714E-1,3.4976592E0,1.0697985E-1,1.0228231E-1,0E0,0E0,5.0225085E-1,0E0,0E0,0E0,4.237902E-2,0E0,0E0,0E0,0E0,7.2948813E-1,3.769251E-1,0E0,2.9617628E-1,0E0,0E0,0E0,0E0,0E0,3.0375543E-1,0E0,0E0,0E0,0E0,0E0,0E0,0E0,0E0],"parents":[2147483647,0,0,1,1,2,2,3,3,4,4,6,6,7,7,8,8,9,9,10,10,11,11,12,12,13,13,14,14,15,15,16,16,17,17,20,20,24,24,29,29,30,30,32,32,38,38],"right_children":[2,4,6,8,10,-1,12,14,16,18,20,22,24,26,28,30,32,34,-1,-1,36,-1,-1,-1,38,-1,-1,-1,-1,40,42,-1,44,-1,-1,-1,-1,-1,46,-1,-1,-1,-1,-1,-1,-1,-1],"split_conditions":[7E0,4E0,4E0,1E0,1E0,-1.4275363E-1,5E0,9E0,3E0,5E0,8E0,8E0,2E0,3E0,7E0,2E0,6E0,5E0,1.3825089E-1,-1.45119E-1,6E0,-2.5092823E-2,8.072956E-2,6.2484E-3,3E0,1.779838E-2,-1.4334624E-1,-9.159622E-2,1.3609567E-1,6E0,9E0,1.7273316E-1,4E0,-8.8286854E-2,1.424878E-2,-1.1051401E-1,7.7455126E-2,-1.4151303E-1,4E0,5.9722293E-2,1.9888063E-1,-1.4099117E-1,2.8813433E-2,-2.5691742E-2,1.27667E-1,2.229902E-2,-1.1816786E-1],"split_indices":[4,0,2,0,4,0,2,2,0,2,3,1,1,1,1,0,4,0,0,0,2,0,0,0,0,0,0,0,0,5,3,0,2,0,0,0,0,0,0,0,0,0,0,0,0,0,0],"split_type":[0,0,0,0,0,0,0,0,0,0,0,0,0,0,0,0,0,0,0,0,0,0,0,0,0,0,0,0,0,0,0,0,0,0,0,0,0,0,0,0,0,0,0,0,0,0,0],"sum_hessian":[8.6548485E1,6.633172E1,2.021677E1,4.9116173E1,1.7215542E1,6.832607E0,1.3384164E1,9.130086E0,3.9986088E1,5.844396E0,1.1371146E1,2.6937551E0,1.0690409E1,6.890472E0,2.2396145E0,2.1853676E1,1.813241E1,2.158117E0,3.6862788E0,8.098204E0,3.2729428E0,1.6079589E0,1.0857962E0,1.2711947E0,9.419213E0,1.2984688E0,5.592003E0,1.0404581E0,1.1991564E0,1.502931E1,6.824366E0,1.4791314E1,3.3410964E0,1.0438073E0,1.1143098E0,1.9133688E0,1.3595738E0,5.04919E0,4.3700233E0,8.202253E0,6.827057E0,5.7655354E0,1.0588309E0,1.3732736E0,1.9678228E0,1.8290772E0,2.5409462E0],"tree_param":{"num_deleted":"0","num_feature":"6","num_nodes":"47","size_leaf_vector":"1"}},{"base_weights":[3.0118262E-3,2.5178027E-1,-2.5032133E-1,3.5733566E-1,-2.785157E-1,9.338213E-2,-4.357025E-1,5.114721E-1,1.7410538E-1,-1.3368846E-1,1.6895039E-2,-2.3946226E-1,2.1461071E-1,-1.7973162E-1,-1.5071127E-1,1.8156935E-1,2.5828737E-1,-1.10083304E-1,2.695795E-1,-1.10617764E-1,1.3151879E-2,-1.549725E-1,3.450382E-1,-1.2160092E-1,1.1097134E-1,-9.2853375E-2,4.2392144E-1,1.7041233E-1,-2.1635517E-2,-1.0239815E-1,4.366395E-2,1.6604443E-1,1.2911035E-1,-2.3663595E-2,8.2600765E-2,3.685759E-2,1.4389908E-1,-1.453004E-1,9.643877E-2,-9.465171E-2,1.0185842E-1],"categories":[],"categories_nodes":[],"categories_segments":[],"categories_sizes":[],"default_left":[0,0,0,0,0,0,0,0,0,0,0,0,0,0,0,0,0,0,0,0,0,0,0,0,0,0,0,0,0,0,0,0,0,0,0,0,0,0,0,0,0],"id":27,"left_children":[1,3,5,7,9,11,13,15,17,-1,-1,19,21,23,-1,-1,25,-1,27,-1,-1,29,31,-1,33,-1,35,-1,37,-1,-1,-1,39,-1,-1,-1,-1,-1,-1,-1,-1],"loss_changes":[4.752149E0,2.2288046E0,2.4214995E0,8.19304E-1,4.0988398E-1,6.128976E-1,3.2695293E-1,2.4609137E-1,9.3629885E-1,0E0,0E0,1.6952766E-1,5.705985E-1,4.7844505E-1,0E0,0E0,7.261152E-1,0E0,1.2600276E0,0E0,0E0,2.4504218E-1,2.9938853E-1,0E0,1.3633433E-1,0E0,3.0333817E-2,0E0,1.4621089E0,0E0,0E0,0E0,6.077666E-1,0E0,0E0,0E0,0E0,0E0,0E0,0E0,0E0],"parents":[2147483647,0,0,1,1,2,2,3,3,4,4,5,5,6,6,7,7,8,8,11,11,12,12,13,13,16,16,18,18,21,21,22,22,24,24,26,26,28,28,32,32],"right_children":[2,4,6,8,10,12,14,16,18,-1,-1,20,22,24,-1,-1,26,-1,28,-1,-1,30,32,-1,34,-1,36,-1,38,-1,-1,-1,40,-1,-1,-1,-1,-1,-1,-1,-1],"split_conditions":[2E0,8E0,2E0,1E0,7E0,4E0,3E0,6E0,3E0,-1.3368846E-1,1.6895039E-2,7E0,3E0,8E0,-1.5071127E-1,1.8156935E-1,4E0,-1.10083304E-1,5E0,-1.10617764E-1,1.3151879E-2,6E0,4E0,-1.2160092E-1,7E0,-9.2853375E-2,5E0,1.7041233E-1,7E0,-1.0239815E-1,4.366395E-2,1.6604443E-1,4E0,-2.3663595E-2,8.2600765E-2,3.685759E-2,1.4389908E-1,-1.453004E-1,9.643877E-2,-9.465171E-2,1.0185842E-1],"split_indices":[0,5,5,0,3,2,5,5,4,0,0,4,3,3,0,0,4,0,5,0,0,4,1,0,2,0,1,0,4,0,0,0,4,0,0,0,0,0,0,0,0],"split_type":[0,0,0,0,0,0,0,0,0,0,0,0,0,0,0,0,0,0,0,0,0,0,0,0,0,0,0,0,0,0,0,0,0,0,0,0,0,0,0,0,0],"sum_hessian":[7.340537E1,3.703945E1,3.636592E1,3.1162678E1,5.8767715E0,1.2915809E1,2.3450111E1,1.5952092E1,1.5210587E1,3.6994858E0,2.1772857E0,3.187883E0,9.727925E0,5.609302E0,1.784081E1,1.0626446E1,5.3256464E0,1.8549933E0,1.3355594E1,1.9820106E0,1.2058724E0,2.4884348E0,7.2394905E0,2.9362476E0,2.6730545E0,1.0065426E0,4.3191037E0,6.1262794E0,7.229314E0,1.4521502E0,1.0362844E0,2.8881664E0,4.351324E0,1.4817046E0,1.1913499E0,1.1753117E0,3.143792E0,2.9028733E0,4.326441E0,1.2373526E0,3.1139717E0],"tree_param":{"num_deleted":"0","num_feature":"6","num_nodes":"41","size_leaf_vector":"1"}},{"base_weights":[-1.1734971E-2,1.4540403E-1,-2.884165E-1,3.468332E-2,1.6032526E-1,-4.2974246E-1,4.869908E-2,1.5851119E-1,-2.244697E-1,-1.486371E-1,-2.2696786E-1,3.084479E-1,-1.3616753E-1,-1.3803694E-2,4.3726835E-1,-3.7618324E-1,2.2116375E-1,-1.8267456E-2,-1.1831001E-1,5.2788407E-3,1.2372116E-1,-1.1171485E-1,7.3630966E-2,-1.2144619E-1,1.0147182E-1,2.4106394E-2,1.5547253E-1,-1.3778208E-1,-3.427135E-2,-1.2431858E-2,1.0727559E-1,-2.242766E-2,1.7280845E-2,7.215275E-2,-4.362185E-2,1.3107194E-1,-1.2866526E-2],"categories":[],"categories_nodes":[],"categories_segments":[],"categories_sizes":[],"default_left":[0,0,0,0,0,0,0,0,0,0,0,0,0,0,0,0,0,0,0,0,0,0,0,0,0,0,0,0,0,0,0,0,0,0,0,0,0],"id":28,"left_children":[1,3,5,7,-1,9,11,13,15,-1,17,19,21,23,25,27,29,31,-1,-1,-1,-1,33,-1,35,-1,-1,-1,-1,-1,-1,-1,-1,-1,-1,-1,-1],"loss_changes":[3.2141893E0,2.0144205E0,1.2960489E0,1.2489552E0,0E0,1.401937E-1,4.6475747E-1,1.2631785E0,9.3771994E-1,0E0,2.1939006E-1,1.126844E-1,3.1669214E-1,8.138083E-1,2.4818838E-1,1.6081846E-1,1.5238003E-1,2.117357E-2,0E0,0E0,0E0,0E0,1.7848878E-1,0E0,6.9858485E-1,0E0,0E0,0E0,0E0,0E0,0E0,0E0,0E0,0E0,0E0,0E0,0E0],"parents":[2147483647,0,0,1,1,2,2,3,3,5,5,6,6,7,7,8,8,10,10,11,11,12,12,13,13,14,14,15,15,16,16,17,17,22,22,24,24],"right_children":[2,4,6,8,-1,10,12,14,16,-1,18,20,22,24,26,28,30,32,-1,-1,-1,-1,34,-1,36,-1,-1,-1,-1,-1,-1,-1,-1,-1,-1,-1,-1],"split_conditions":[5E0,5E0,5E0,3E0,1.6032526E-1,8E0,7E0,2E0,9E0,-1.486371E-1,9E0,3E0,5E0,5E0,3E0,7E0,3E0,6E0,-1.1831001E-1,5.2788407E-3,1.2372116E-1,-1.1171485E-1,6E0,-1.2144619E-1,4E0,2.4106394E-2,1.5547253E-1,-1.3778208E-1,-3.427135E-2,-1.2431858E-2,1.0727559E-1,-2.242766E-2,1.7280845E-2,7.215275E-2,-4.362185E-2,1.3107194E-1,-1.2866526E-2],"split_indices":[3,0,0,0,0,2,3,0,2,0,2,2,2,5,2,2,5,5,0,0,0,0,2,0,1,0,0,0,0,0,0,0,0,0,0,0,0],"split_type":[0,0,0,0,0,0,0,0,0,0,0,0,0,0,0,0,0,0,0,0,0,0,0,0,0,0,0,0,0,0,0,0,0,0,0,0,0],"sum_hessian":[7.196314E1,4.6199177E1,2.576397E1,3.681117E1,9.388007E0,1.7959997E1,7.803972E0,2.5171926E1,1.163924E1,1.2474057E1,5.48594E0,2.966862E0,4.83711E0,1.6143337E1,9.028589E0,8.799383E0,2.8398573E0,2.935412E0,2.550528E0,1.0890745E0,1.8777874E0,1.9107797E0,2.9263303E0,3.1037133E0,1.3039625E1,2.0379767E0,6.9906125E0,6.1084394E0,2.6909435E0,1.2089466E0,1.6309109E0,1.6909871E0,1.2444249E0,1.6052823E0,1.3210481E0,3.313619E0,9.726006E0],"tree_param":{"num_deleted":"0","num_feature":"6","num_nodes":"37","size_leaf_vector":"1"}},{"base_weights":[-5.4939142E-3,1.8800221E-1,-1.8943779E-1,6.347671E-2,3.157436E-1,-3.4944704E-1,2.4722407E-2,-1.0326531E-1,3.1414872E-1,3.8975328E-1,-3.1704713E-2,-4.3985927E-1,-1.3516626E-1,1.8770902E-1,-1.2895288E-1,-2.8973612E-1,6.279546E-2,1.4087126E-1,1.06347986E-1,4.9887013E-1,1.4265409E-1,-1.0138371E-1,7.131776E-2,-1.462591E-1,-2.6528537E-1,-9.425606E-3,-1.10415086E-1,1.5351692E-1,6.293303E-2,-1.2239108E-1,-8.288922E-2,2.0779684E-1,-1.685636E-1,-8.842413E-2,9.4615676E-2,5.119266E-2,1.6438368E-1,-9.753757E-2,3.2092333E-1,-1.0326951E-2,-1.21785365E-1,1.5574703E-1,-1.0613842E-1,-1.9325803E-1,3.6304805E-1,-8.588247E-2,3.7115604E-2,-3.5980344E-2,1.3726315E-1,-9.2088446E-2,4.6827947E-3,2.5915148E-2,1.2539591E-1,5.372988E-3,6.2617555E-2,-1.3001883E-1,2.0591587E-2,1.3869081E-1,1.1716336E-3],"categories":[],"categories_nodes":[],"categories_segments":[],"categories_sizes":[],"default_left":[0,0,0,0,0,0,0,0,0,0,0,0,0,0,0,0,0,0,0,0,0,0,0,0,0,0,0,0,0,0,0,0,0,0,0,0,0,0,0,0,0,0,0,0,0,0,0,0,0,0,0,0,0,0,0,0,0,0,0],"id":29,"left_children":[1,3,5,7,9,11,13,15,17,19,21,23,25,27,-1,29,31,-1,33,35,37,-1,-1,-1,39,41,-1,-1,43,-1,45,47,49,-1,-1,-1,-1,-1,51,-1,-1,53,-1,55,57,-1,-1,-1,-1,-1,-1,-1,-1,-1,-1,-1,-1,-1,-1],"loss_changes":[2.7743902E0,5.8446324E-1,1.377491E0,8.890822E-1,4.8826385E-1,3.8477468E-1,1.4154812E0,4.2262185E-1,2.2246706E-1,3.4224176E-1,4.247983E-1,1.172781E-3,2.3804413E-1,5.3208375E-1,0E0,1.21001005E-1,2.943565E-1,0E0,5.0394994E-1,7.1368694E-2,6.127882E-1,0E0,0E0,0E0,1.6649991E-1,4.1811815E-1,0E0,0E0,9.3261033E-1,0E0,1.8490209E-1,4.8048425E-1,9.477767E-2,0E0,0E0,0E0,0E0,0E0,7.585132E-2,0E0,0E0,3.282912E-2,0E0,4.5137116E-1,1.9471848E-1,0E0,0E0,0E0,0E0,0E0,0E0,0E0,0E0,0E0,0E0,0E0,0E0,0E0,0E0],"parents":[2147483647,0,0,1,1,2,2,3,3,4,4,5,5,6,6,7,7,8,8,9,9,10,10,11,11,12,12,13,13,15,15,16,16,18,18,19,19,20,20,24,24,25,25,28,28,30,30,31,31,32,32,38,38,41,41,43,43,44,44],"right_children":[2,4,6,8,10,12,14,16,18,20,22,24,26,28,-1,30,32,-1,34,36,38,-1,-1,-1,40,42,-1,-1,44,-1,46,48,50,-1,-1,-1,-1,-1,52,-1,-1,54,-1,56,58,-1,-1,-1,-1,-1,-1,-1,-1,-1,-1,-1,-1,-1,-1],"split_conditions":[4E0,6E0,4E0,4E0,5E0,8E0,5E0,5E0,5E0,2E0,6E0,6E0,8E0,6E0,-1.2895288E-1,5E0,8E0,1.4087126E-1,5E0,1E0,7E0,-1.0138371E-1,7.131776E-2,-1.462591E-1,4E0,9E0,-1.10415086E-1,1.5351692E-1,6E0,-1.2239108E-1,2E0,6E0,2E0,-8.842413E-2,9.4615676E-2,5.119266E-2,1.6438368E-1,-9.753757E-2,3E0,-1.0326951E-2,-1.21785365E-1,6E0,-1.0613842E-1,4E0,9E0,-8.588247E-2,3.7115604E-2,-3.5980344E-2,1.3726315E-1,-9.2088446E-2,4.6827947E-3,2.5915148E-2,1.2539591E-1,5.372988E-3,6.2617555E-2,-1.3001883E-1,2.0591587E-2,1.3869081E-1,1.1716336E-3],"split_indices":[2,4,0,0,0,3,0,1,0,2,3,3,2,2,0,3,1,0,3,0,4,0,0,0,4,3,0,0,5,0,0,5,0,0,0,0,0,0,0,0,0,1,0,4,2,0,0,0,0,0,0,0,0,0,0,0,0,0,0],"split_type":[0,0,0,0,0,0,0,0,0,0,0,0,0,0,0,0,0,0,0,0,0,0,0,0,0,0,0,0,0,0,0,0,0,0,0,0,0,0,0,0,0,0,0,0,0,0,0,0,0,0,0,0,0,0,0,0,0,0,0],"sum_hessian":[7.5948265E1,3.700233E1,3.8945934E1,1.9495014E1,1.7507315E1,2.1929588E1,1.7016346E1,1.2060595E1,7.4344196E0,1.4332584E1,3.174731E0,1.4682027E1,7.2475615E0,1.2957448E1,4.058898E0,5.330348E0,6.730246E0,3.5325634E0,3.9018562E0,9.235403E0,5.0971813E0,1.3668464E0,1.8078847E0,1.0124606E1,4.5574207E0,5.382092E0,1.8654698E0,2.7403264E0,1.0217121E1,2.7729783E0,2.5573697E0,4.199872E0,2.530374E0,1.1963384E0,2.7055178E0,1.7835745E0,7.4518285E0,1.179191E0,3.91799E0,2.196772E0,2.3606489E0,4.007617E0,1.3744745E0,5.7039976E0,4.5131235E0,1.0944216E0,1.4629481E0,2.0411465E0,2.1587255E0,1.0640697E0,1.4663043E0,1.7000433E0,2.2179468E0,1.4841806E0,2.5234365E0,2.6339982E0,3.0699995E0,3.3108726E0,1.2022511E0],"tree_param":{"num_deleted":"0","num_feature":"6","num_nodes":"59","size_leaf_vector":"1"}},{"base_weights":[1.3197003E-2,2.7339467E-1,-1.3369453E-1,3.9407578E-1,3.938015E-2,-2.9249862E-2,-1.4735089E-1,2.4399703E-2,4.5567626E-1,-1.13451265E-1,1.9742982E-1,-2.3295131E-1,3.5388213E-1,-9.544272E-2,1.1312289E-1,1.8139634E-1,2.9317552E-1,-3.120985E-2,1.6829534E-1,-3.1201422E-1,1.8262458E-1,4.4964617E-1,-9.714493E-2,-1.7766933E-1,1.4976244E-1,2.0761149E-1,-1.085925E-1,7.811154E-2,-4.2255467E-1,1.2478536E-3,8.872097E-2,1.4347696E-1,5.260662E-1,-1.0179195E-1,3.609538E-2,1.1772986E-1,-9.740682E-3,-9.983288E-2,9.1408014E-2,-1.373153E-1,-4.514314E-2,1.16340764E-1,-6.290564E-2,2.8315129E-2,1.7139319E-1],"categories":[],"categories_nodes":[],"categories_segments":[],"categories_sizes":[],"default_left":[0,0,0,0,0,0,0,0,0,0,0,0,0,0,0,0,0,0,0,0,0,0,0,0,0,0,0,0,0,0,0,0,0,0,0,0,0,0,0,0,0,0,0,0,0],"id":30,"left_children":[1,3,5,7,9,11,-1,13,15,-1,17,19,21,-1,-1,-1,23,25,-1,27,29,31,-1,33,-1,35,-1,37,39,-1,-1,41,43,-1,-1,-1,-1,-1,-1,-1,-1,-1,-1,-1,-1],"loss_changes":[2.98094E0,7.787821E-1,1.8491111E0,4.089203E-1,7.795067E-1,3.1799145E0,0E0,5.658802E-1,2.0412111E-1,0E0,7.161408E-1,9.281732E-1,1.0654608E0,0E0,0E0,0E0,1.0079832E0,5.575729E-1,0E0,1.009608E0,9.705672E-2,2.2488523E-1,0E0,2.1528003E-1,0E0,1.9830392E-1,0E0,6.454621E-1,1.0143733E-1,0E0,0E0,4.2121863E-1,1.3940167E-1,0E0,0E0,0E0,0E0,0E0,0E0,0E0,0E0,0E0,0E0,0E0,0E0],"parents":[2147483647,0,0,1,1,2,2,3,3,4,4,5,5,7,7,8,8,10,10,11,11,12,12,16,16,17,17,19,19,20,20,21,21,23,23,25,25,27,27,28,28,31,31,32,32],"right_children":[2,4,6,8,10,12,-1,14,16,-1,18,20,22,-1,-1,-1,24,26,-1,28,30,32,-1,34,-1,36,-1,38,40,-1,-1,42,44,-1,-1,-1,-1,-1,-1,-1,-1,-1,-1,-1,-1],"split_conditions":[3E0,4E0,4E0,1E0,4E0,3E0,-1.4735089E-1,9E0,2E0,-1.13451265E-1,8E0,9E0,8E0,-9.544272E-2,1.1312289E-1,1.8139634E-1,3E0,1E0,1.6829534E-1,3E0,3E0,2E0,-9.714493E-2,7E0,1.4976244E-1,5E0,-1.085925E-1,5E0,9E0,1.2478536E-3,8.872097E-2,6E0,3E0,-1.0179195E-1,3.609538E-2,1.1772986E-1,-9.740682E-3,-9.983288E-2,9.1408014E-2,-1.373153E-1,-4.514314E-2,1.16340764E-1,-6.290564E-2,2.8315129E-2,1.7139319E-1],"split_indices":[4,0,0,0,2,0,0,2,0,0,3,1,4,0,0,0,0,4,0,1,2,5,0,1,0,1,0,5,5,0,0,4,3,0,0,0,0,0,0,0,0,0,0,0,0],"split_type":[0,0,0,0,0,0,0,0,0,0,0,0,0,0,0,0,0,0,0,0,0,0,0,0,0,0,0,0,0,0,0,0,0,0,0,0,0,0,0,0,0,0,0,0,0],"sum_hessian":[7.603622E1,2.7125683E1,4.8910534E1,1.7445219E1,9.680465E0,3.8688583E1,1.0221948E1,2.6911585E0,1.475406E1,2.2756627E0,7.404802E0,2.5514933E1,1.3173653E1,1.4148681E0,1.2762904E0,6.277766E0,8.476294E0,5.107099E0,2.297703E0,2.1646002E1,3.8689306E0,1.1837441E1,1.3362118E0,2.6219752E0,5.8543186E0,3.1819644E0,1.9251345E0,4.8439207E0,1.680208E1,1.903078E0,1.9658526E0,2.9392216E0,8.898219E0,1.6100014E0,1.0119736E0,1.4393326E0,1.7426317E0,1.5551329E0,3.2887878E0,1.4274902E1,2.5271785E0,1.6793349E0,1.2598867E0,1.136909E0,7.7613106E0],"tree_param":{"num_deleted":"0","num_feature":"6","num_nodes":"45","size_leaf_vector":"1"}},{"base_weights":[4.0034447E-3,2.2306842E-1,-2.2517486E-1,3.2316655E-1,-2.647737E-1,1.4152863E-2,-1.4730673E-1,4.6904588E-1,1.5420401E-1,-1.2785533E-1,1.0989208E-2,-1.1376228E-1,3.9775872E-1,1.6950852E-1,2.3056048E-1,-1.0446362E-1,2.441595E-1,-2.2781575E-1,2.6251885E-1,5.891533E-3,1.704E-1,6.624684E-2,1.1334187E-1,1.595628E-1,-2.5782062E-2,-3.778849E-1,3.7001796E-2,-1.2219282E-2,1.3949119E-1,5.093921E-2,-3.1877346E-2,-1.3464922E-1,7.924215E-2,-1.03840465E-2,-1.4111054E-1,7.390773E-2,-9.789239E-2],"categories":[],"categories_nodes":[],"categories_segments":[],"categories_sizes":[],"default_left":[0,0,0,0,0,0,0,0,0,0,0,0,0,0,0,0,0,0,0,0,0,0,0,0,0,0,0,0,0,0,0,0,0,0,0,0,0],"id":31,"left_children":[1,3,5,7,9,11,-1,13,15,-1,-1,17,19,-1,21,-1,23,25,27,-1,-1,29,-1,-1,31,33,35,-1,-1,-1,-1,-1,-1,-1,-1,-1,-1],"loss_changes":[3.3398461E0,1.7460235E0,2.0760465E0,6.342001E-1,3.239942E-1,9.3270004E-1,0E0,2.1064162E-1,7.5260866E-1,0E0,0E0,6.752531E-1,2.942937E-1,0E0,1.1925003E-1,0E0,1.032388E0,4.7260815E-1,2.5225243E-1,0E0,0E0,9.0046585E-2,0E0,0E0,1.0655204E0,2.204014E-1,4.6716946E-1,0E0,0E0,0E0,0E0,0E0,0E0,0E0,0E0,0E0,0E0],"parents":[2147483647,0,0,1,1,2,2,3,3,4,4,5,5,7,7,8,8,11,11,12,12,14,14,16,16,17,17,18,18,21,21,24,24,25,25,26,26],"right_children":[2,4,6,8,10,12,-1,14,16,-1,-1,18,20,-1,22,-1,24,26,28,-1,-1,30,-1,-1,32,34,36,-1,-1,-1,-1,-1,-1,-1,-1,-1,-1],"split_conditions":[2E0,8E0,3E0,1E0,7E0,8E0,-1.4730673E-1,6E0,3E0,-1.2785533E-1,1.0989208E-2,9E0,5E0,1.6950852E-1,8E0,-1.0446362E-1,5E0,7E0,5E0,5.891533E-3,1.704E-1,7E0,1.1334187E-1,1.595628E-1,7E0,2E0,2E0,-1.2219282E-2,1.3949119E-1,5.093921E-2,-3.1877346E-2,-1.3464922E-1,7.924215E-2,-1.03840465E-2,-1.4111054E-1,7.390773E-2,-9.789239E-2],"split_indices":[0,5,5,0,3,4,0,5,4,0,0,2,3,0,1,0,5,3,4,0,0,3,0,0,4,4,5,0,0,0,0,0,0,0,0,0,0],"split_type":[0,0,0,0,0,0,0,0,0,0,0,0,0,0,0,0,0,0,0,0,0,0,0,0,0,0,0,0,0,0,0,0,0,0,0,0,0],"sum_hessian":[6.4523766E1,3.3003414E1,3.1520355E1,2.7664598E1,5.338815E0,1.708576E1,1.4434596E1,1.3893315E1,1.3771284E1,3.2072468E0,2.1315682E0,1.3340686E1,3.7450736E0,8.930033E0,4.9632816E0,1.6552887E0,1.2115995E1,1.0540381E1,2.800304E0,1.5089418E0,2.236132E0,3.0309296E0,1.932352E0,5.3951993E0,6.7207956E0,6.4552817E0,4.0850997E0,1.4408642E0,1.3594398E0,1.9038105E0,1.1271192E0,2.5100622E0,4.2107334E0,1.661724E0,4.7935576E0,2.795878E0,1.2892218E0],"tree_param":{"num_deleted":"0","num_feature":"6","num_nodes":"37","size_leaf_vector":"1"}},{"base_weights":[-1.0718183E-2,2.2879821E-1,-1.7936395E-1,1.5657394E-1,1.4124438E-1,-3.1742522E-1,1.8535823E-1,2.4570823E-1,-1.2083867E-1,-4.151509E-1,-1.1987401E-1,4.1177717E-1,-1.3328657E-1,-1.05359904E-1,3.095276E-1,-3.0973595E-1,7.506329E-2,-1.6785435E-1,-1.4775269E-1,-2.4867727E-1,2.537378E-1,4.179738E-3,1.4807166E-1,-1.07549824E-1,5.598387E-2,-8.999323E-2,4.298078E-2,5.7924096E-2,4.1019908E-1,-1.1186451E-1,-1.6595207E-2,2.817834E-2,-2.9556015E-1,-1.3084763E-1,-8.460603E-2,